digraph Tree {
node [shape=box, style="filled, rounded", color="black", fontname=helvetica] ;
edge [fontname=helvetica] ;
0 [label="age <= 3.33\ngini = 0.5\nsamples = 4884\nvalue = [3890, 3916]\nclass = fail", fillcolor="#fefeff"] ;
1 [label="sex <= 0.5\ngini = 0.5\nsamples = 3431\nvalue = [2920, 2555]\nclass = pass", fillcolor="#fcefe6"] ;
0 -> 1 [labeldistance=2.5, labelangle=45, headlabel="True"] ;
2 [label="hours_studied <= -1.3\ngini = 0.44\nsamples = 1066\nvalue = [1119, 548]\nclass = pass", fillcolor="#f2bf9a"] ;
1 -> 2 ;
3 [label="gini = 0.0\nsamples = 2\nvalue = [0, 7]\nclass = fail", fillcolor="#399de5"] ;
2 -> 3 ;
4 [label="dojo_class <= 0.5\ngini = 0.44\nsamples = 1064\nvalue = [1119, 541]\nclass = pass", fillcolor="#f2be99"] ;
2 -> 4 ;
5 [label="hours_studied <= 1.99\ngini = 0.36\nsamples = 873\nvalue = [1030, 319]\nclass = pass", fillcolor="#eda876"] ;
4 -> 5 ;
6 [label="hours_studied <= 1.08\ngini = 0.34\nsamples = 708\nvalue = [855, 235]\nclass = pass", fillcolor="#eca46f"] ;
5 -> 6 ;
7 [label="age <= 2.99\ngini = 0.27\nsamples = 166\nvalue = [208, 40]\nclass = pass", fillcolor="#ea995f"] ;
6 -> 7 ;
8 [label="age <= 2.89\ngini = 0.13\nsamples = 57\nvalue = [78, 6]\nclass = pass", fillcolor="#e78b48"] ;
7 -> 8 ;
9 [label="hours_studied <= -0.18\ngini = 0.21\nsamples = 26\nvalue = [36, 5]\nclass = pass", fillcolor="#e99254"] ;
8 -> 9 ;
10 [label="hours_studied <= -0.69\ngini = 0.5\nsamples = 2\nvalue = [1, 1]\nclass = pass", fillcolor="#ffffff"] ;
9 -> 10 ;
11 [label="gini = 0.0\nsamples = 1\nvalue = [1, 0]\nclass = pass", fillcolor="#e58139"] ;
10 -> 11 ;
12 [label="gini = 0.0\nsamples = 1\nvalue = [0, 1]\nclass = fail", fillcolor="#399de5"] ;
10 -> 12 ;
13 [label="hours_studied <= 0.99\ngini = 0.18\nsamples = 24\nvalue = [35, 4]\nclass = pass", fillcolor="#e88f50"] ;
9 -> 13 ;
14 [label="hours_studied <= 0.97\ngini = 0.22\nsamples = 20\nvalue = [27, 4]\nclass = pass", fillcolor="#e99456"] ;
13 -> 14 ;
15 [label="hours_studied <= 0.62\ngini = 0.18\nsamples = 19\nvalue = [27, 3]\nclass = pass", fillcolor="#e88f4f"] ;
14 -> 15 ;
16 [label="hours_studied <= 0.61\ngini = 0.28\nsamples = 8\nvalue = [10, 2]\nclass = pass", fillcolor="#ea9a61"] ;
15 -> 16 ;
17 [label="hours_studied <= 0.41\ngini = 0.17\nsamples = 7\nvalue = [10, 1]\nclass = pass", fillcolor="#e88e4d"] ;
16 -> 17 ;
18 [label="hours_studied <= 0.23\ngini = 0.32\nsamples = 4\nvalue = [4, 1]\nclass = pass", fillcolor="#eca06a"] ;
17 -> 18 ;
19 [label="gini = 0.0\nsamples = 3\nvalue = [4, 0]\nclass = pass", fillcolor="#e58139"] ;
18 -> 19 ;
20 [label="gini = 0.0\nsamples = 1\nvalue = [0, 1]\nclass = fail", fillcolor="#399de5"] ;
18 -> 20 ;
21 [label="gini = 0.0\nsamples = 3\nvalue = [6, 0]\nclass = pass", fillcolor="#e58139"] ;
17 -> 21 ;
22 [label="gini = 0.0\nsamples = 1\nvalue = [0, 1]\nclass = fail", fillcolor="#399de5"] ;
16 -> 22 ;
23 [label="hours_studied <= 0.94\ngini = 0.1\nsamples = 11\nvalue = [17, 1]\nclass = pass", fillcolor="#e78845"] ;
15 -> 23 ;
24 [label="gini = 0.0\nsamples = 8\nvalue = [13, 0]\nclass = pass", fillcolor="#e58139"] ;
23 -> 24 ;
25 [label="hours_studied <= 0.95\ngini = 0.32\nsamples = 3\nvalue = [4, 1]\nclass = pass", fillcolor="#eca06a"] ;
23 -> 25 ;
26 [label="gini = 0.0\nsamples = 1\nvalue = [0, 1]\nclass = fail", fillcolor="#399de5"] ;
25 -> 26 ;
27 [label="gini = 0.0\nsamples = 2\nvalue = [4, 0]\nclass = pass", fillcolor="#e58139"] ;
25 -> 27 ;
28 [label="gini = 0.0\nsamples = 1\nvalue = [0, 1]\nclass = fail", fillcolor="#399de5"] ;
14 -> 28 ;
29 [label="gini = 0.0\nsamples = 4\nvalue = [8, 0]\nclass = pass", fillcolor="#e58139"] ;
13 -> 29 ;
30 [label="hours_studied <= 0.43\ngini = 0.05\nsamples = 31\nvalue = [42, 1]\nclass = pass", fillcolor="#e6843e"] ;
8 -> 30 ;
31 [label="age <= 2.95\ngini = 0.13\nsamples = 11\nvalue = [13, 1]\nclass = pass", fillcolor="#e78b48"] ;
30 -> 31 ;
32 [label="hours_studied <= 0.19\ngini = 0.28\nsamples = 5\nvalue = [5, 1]\nclass = pass", fillcolor="#ea9a61"] ;
31 -> 32 ;
33 [label="gini = 0.0\nsamples = 4\nvalue = [5, 0]\nclass = pass", fillcolor="#e58139"] ;
32 -> 33 ;
34 [label="gini = 0.0\nsamples = 1\nvalue = [0, 1]\nclass = fail", fillcolor="#399de5"] ;
32 -> 34 ;
35 [label="gini = 0.0\nsamples = 6\nvalue = [8, 0]\nclass = pass", fillcolor="#e58139"] ;
31 -> 35 ;
36 [label="gini = 0.0\nsamples = 20\nvalue = [29, 0]\nclass = pass", fillcolor="#e58139"] ;
30 -> 36 ;
37 [label="age <= 3.0\ngini = 0.33\nsamples = 109\nvalue = [130, 34]\nclass = pass", fillcolor="#eca26d"] ;
7 -> 37 ;
38 [label="hours_studied <= 0.08\ngini = 0.5\nsamples = 15\nvalue = [11, 9]\nclass = pass", fillcolor="#fae8db"] ;
37 -> 38 ;
39 [label="hours_studied <= -1.09\ngini = 0.24\nsamples = 6\nvalue = [6, 1]\nclass = pass", fillcolor="#e9965a"] ;
38 -> 39 ;
40 [label="gini = 0.0\nsamples = 2\nvalue = [3, 0]\nclass = pass", fillcolor="#e58139"] ;
39 -> 40 ;
41 [label="hours_studied <= -0.81\ngini = 0.38\nsamples = 4\nvalue = [3, 1]\nclass = pass", fillcolor="#eeab7b"] ;
39 -> 41 ;
42 [label="gini = 0.0\nsamples = 1\nvalue = [0, 1]\nclass = fail", fillcolor="#399de5"] ;
41 -> 42 ;
43 [label="gini = 0.0\nsamples = 3\nvalue = [3, 0]\nclass = pass", fillcolor="#e58139"] ;
41 -> 43 ;
44 [label="hours_studied <= 0.82\ngini = 0.47\nsamples = 9\nvalue = [5, 8]\nclass = fail", fillcolor="#b5daf5"] ;
38 -> 44 ;
45 [label="gini = 0.0\nsamples = 4\nvalue = [0, 5]\nclass = fail", fillcolor="#399de5"] ;
44 -> 45 ;
46 [label="hours_studied <= 0.9\ngini = 0.47\nsamples = 5\nvalue = [5, 3]\nclass = pass", fillcolor="#f5cdb0"] ;
44 -> 46 ;
47 [label="gini = 0.0\nsamples = 1\nvalue = [2, 0]\nclass = pass", fillcolor="#e58139"] ;
46 -> 47 ;
48 [label="hours_studied <= 1.04\ngini = 0.5\nsamples = 4\nvalue = [3, 3]\nclass = pass", fillcolor="#ffffff"] ;
46 -> 48 ;
49 [label="hours_studied <= 1.02\ngini = 0.38\nsamples = 3\nvalue = [1, 3]\nclass = fail", fillcolor="#7bbeee"] ;
48 -> 49 ;
50 [label="hours_studied <= 0.98\ngini = 0.5\nsamples = 2\nvalue = [1, 1]\nclass = pass", fillcolor="#ffffff"] ;
49 -> 50 ;
51 [label="gini = 0.0\nsamples = 1\nvalue = [0, 1]\nclass = fail", fillcolor="#399de5"] ;
50 -> 51 ;
52 [label="gini = 0.0\nsamples = 1\nvalue = [1, 0]\nclass = pass", fillcolor="#e58139"] ;
50 -> 52 ;
53 [label="gini = 0.0\nsamples = 1\nvalue = [0, 2]\nclass = fail", fillcolor="#399de5"] ;
49 -> 53 ;
54 [label="gini = 0.0\nsamples = 1\nvalue = [2, 0]\nclass = pass", fillcolor="#e58139"] ;
48 -> 54 ;
55 [label="age <= 3.09\ngini = 0.29\nsamples = 94\nvalue = [119, 25]\nclass = pass", fillcolor="#ea9b63"] ;
37 -> 55 ;
56 [label="hours_studied <= 0.95\ngini = 0.14\nsamples = 37\nvalue = [50, 4]\nclass = pass", fillcolor="#e78b49"] ;
55 -> 56 ;
57 [label="age <= 3.05\ngini = 0.21\nsamples = 23\nvalue = [30, 4]\nclass = pass", fillcolor="#e89253"] ;
56 -> 57 ;
58 [label="age <= 3.04\ngini = 0.27\nsamples = 16\nvalue = [21, 4]\nclass = pass", fillcolor="#ea995f"] ;
57 -> 58 ;
59 [label="gini = 0.0\nsamples = 3\nvalue = [5, 0]\nclass = pass", fillcolor="#e58139"] ;
58 -> 59 ;
60 [label="hours_studied <= 0.45\ngini = 0.32\nsamples = 13\nvalue = [16, 4]\nclass = pass", fillcolor="#eca06a"] ;
58 -> 60 ;
61 [label="gini = 0.0\nsamples = 1\nvalue = [0, 1]\nclass = fail", fillcolor="#399de5"] ;
60 -> 61 ;
62 [label="hours_studied <= 0.92\ngini = 0.27\nsamples = 12\nvalue = [16, 3]\nclass = pass", fillcolor="#ea995e"] ;
60 -> 62 ;
63 [label="hours_studied <= 0.73\ngini = 0.2\nsamples = 11\nvalue = [16, 2]\nclass = pass", fillcolor="#e89152"] ;
62 -> 63 ;
64 [label="gini = 0.0\nsamples = 5\nvalue = [7, 0]\nclass = pass", fillcolor="#e58139"] ;
63 -> 64 ;
65 [label="hours_studied <= 0.79\ngini = 0.3\nsamples = 6\nvalue = [9, 2]\nclass = pass", fillcolor="#eb9d65"] ;
63 -> 65 ;
66 [label="gini = 0.0\nsamples = 1\nvalue = [0, 1]\nclass = fail", fillcolor="#399de5"] ;
65 -> 66 ;
67 [label="hours_studied <= 0.89\ngini = 0.18\nsamples = 5\nvalue = [9, 1]\nclass = pass", fillcolor="#e88f4f"] ;
65 -> 67 ;
68 [label="hours_studied <= 0.87\ngini = 0.32\nsamples = 3\nvalue = [4, 1]\nclass = pass", fillcolor="#eca06a"] ;
67 -> 68 ;
69 [label="gini = 0.0\nsamples = 2\nvalue = [4, 0]\nclass = pass", fillcolor="#e58139"] ;
68 -> 69 ;
70 [label="gini = 0.0\nsamples = 1\nvalue = [0, 1]\nclass = fail", fillcolor="#399de5"] ;
68 -> 70 ;
71 [label="gini = 0.0\nsamples = 2\nvalue = [5, 0]\nclass = pass", fillcolor="#e58139"] ;
67 -> 71 ;
72 [label="gini = 0.0\nsamples = 1\nvalue = [0, 1]\nclass = fail", fillcolor="#399de5"] ;
62 -> 72 ;
73 [label="gini = 0.0\nsamples = 7\nvalue = [9, 0]\nclass = pass", fillcolor="#e58139"] ;
57 -> 73 ;
74 [label="gini = 0.0\nsamples = 14\nvalue = [20, 0]\nclass = pass", fillcolor="#e58139"] ;
56 -> 74 ;
75 [label="age <= 3.09\ngini = 0.36\nsamples = 57\nvalue = [69, 21]\nclass = pass", fillcolor="#eda775"] ;
55 -> 75 ;
76 [label="hours_studied <= 0.87\ngini = 0.48\nsamples = 8\nvalue = [9, 6]\nclass = pass", fillcolor="#f6d5bd"] ;
75 -> 76 ;
77 [label="hours_studied <= 0.13\ngini = 0.48\nsamples = 5\nvalue = [4, 6]\nclass = fail", fillcolor="#bddef6"] ;
76 -> 77 ;
78 [label="gini = 0.0\nsamples = 2\nvalue = [4, 0]\nclass = pass", fillcolor="#e58139"] ;
77 -> 78 ;
79 [label="gini = 0.0\nsamples = 3\nvalue = [0, 6]\nclass = fail", fillcolor="#399de5"] ;
77 -> 79 ;
80 [label="gini = 0.0\nsamples = 3\nvalue = [5, 0]\nclass = pass", fillcolor="#e58139"] ;
76 -> 80 ;
81 [label="hours_studied <= 0.89\ngini = 0.32\nsamples = 49\nvalue = [60, 15]\nclass = pass", fillcolor="#eca06a"] ;
75 -> 81 ;
82 [label="hours_studied <= 0.65\ngini = 0.41\nsamples = 30\nvalue = [33, 13]\nclass = pass", fillcolor="#efb387"] ;
81 -> 82 ;
83 [label="hours_studied <= -0.28\ngini = 0.29\nsamples = 26\nvalue = [33, 7]\nclass = pass", fillcolor="#eb9c63"] ;
82 -> 83 ;
84 [label="gini = 0.0\nsamples = 3\nvalue = [7, 0]\nclass = pass", fillcolor="#e58139"] ;
83 -> 84 ;
85 [label="hours_studied <= 0.05\ngini = 0.33\nsamples = 23\nvalue = [26, 7]\nclass = pass", fillcolor="#eca36e"] ;
83 -> 85 ;
86 [label="gini = 0.0\nsamples = 2\nvalue = [0, 2]\nclass = fail", fillcolor="#399de5"] ;
85 -> 86 ;
87 [label="hours_studied <= 0.25\ngini = 0.27\nsamples = 21\nvalue = [26, 5]\nclass = pass", fillcolor="#ea995f"] ;
85 -> 87 ;
88 [label="gini = 0.0\nsamples = 2\nvalue = [7, 0]\nclass = pass", fillcolor="#e58139"] ;
87 -> 88 ;
89 [label="age <= 3.17\ngini = 0.33\nsamples = 19\nvalue = [19, 5]\nclass = pass", fillcolor="#eca26d"] ;
87 -> 89 ;
90 [label="hours_studied <= 0.41\ngini = 0.12\nsamples = 13\nvalue = [15, 1]\nclass = pass", fillcolor="#e78946"] ;
89 -> 90 ;
91 [label="hours_studied <= 0.4\ngini = 0.24\nsamples = 7\nvalue = [6, 1]\nclass = pass", fillcolor="#e9965a"] ;
90 -> 91 ;
92 [label="gini = 0.0\nsamples = 6\nvalue = [6, 0]\nclass = pass", fillcolor="#e58139"] ;
91 -> 92 ;
93 [label="gini = 0.0\nsamples = 1\nvalue = [0, 1]\nclass = fail", fillcolor="#399de5"] ;
91 -> 93 ;
94 [label="gini = 0.0\nsamples = 6\nvalue = [9, 0]\nclass = pass", fillcolor="#e58139"] ;
90 -> 94 ;
95 [label="age <= 3.2\ngini = 0.5\nsamples = 6\nvalue = [4, 4]\nclass = pass", fillcolor="#ffffff"] ;
89 -> 95 ;
96 [label="gini = 0.0\nsamples = 1\nvalue = [0, 2]\nclass = fail", fillcolor="#399de5"] ;
95 -> 96 ;
97 [label="hours_studied <= 0.51\ngini = 0.44\nsamples = 5\nvalue = [4, 2]\nclass = pass", fillcolor="#f2c09c"] ;
95 -> 97 ;
98 [label="hours_studied <= 0.36\ngini = 0.44\nsamples = 3\nvalue = [1, 2]\nclass = fail", fillcolor="#9ccef2"] ;
97 -> 98 ;
99 [label="gini = 0.0\nsamples = 1\nvalue = [1, 0]\nclass = pass", fillcolor="#e58139"] ;
98 -> 99 ;
100 [label="gini = 0.0\nsamples = 2\nvalue = [0, 2]\nclass = fail", fillcolor="#399de5"] ;
98 -> 100 ;
101 [label="gini = 0.0\nsamples = 2\nvalue = [3, 0]\nclass = pass", fillcolor="#e58139"] ;
97 -> 101 ;
102 [label="gini = 0.0\nsamples = 4\nvalue = [0, 6]\nclass = fail", fillcolor="#399de5"] ;
82 -> 102 ;
103 [label="hours_studied <= 1.05\ngini = 0.13\nsamples = 19\nvalue = [27, 2]\nclass = pass", fillcolor="#e78a48"] ;
81 -> 103 ;
104 [label="age <= 3.26\ngini = 0.07\nsamples = 18\nvalue = [27, 1]\nclass = pass", fillcolor="#e68640"] ;
103 -> 104 ;
105 [label="gini = 0.0\nsamples = 6\nvalue = [9, 0]\nclass = pass", fillcolor="#e58139"] ;
104 -> 105 ;
106 [label="age <= 3.26\ngini = 0.1\nsamples = 12\nvalue = [18, 1]\nclass = pass", fillcolor="#e68844"] ;
104 -> 106 ;
107 [label="hours_studied <= 1.0\ngini = 0.13\nsamples = 9\nvalue = [13, 1]\nclass = pass", fillcolor="#e78b48"] ;
106 -> 107 ;
108 [label="gini = 0.0\nsamples = 6\nvalue = [9, 0]\nclass = pass", fillcolor="#e58139"] ;
107 -> 108 ;
109 [label="hours_studied <= 1.01\ngini = 0.32\nsamples = 3\nvalue = [4, 1]\nclass = pass", fillcolor="#eca06a"] ;
107 -> 109 ;
110 [label="gini = 0.0\nsamples = 1\nvalue = [0, 1]\nclass = fail", fillcolor="#399de5"] ;
109 -> 110 ;
111 [label="gini = 0.0\nsamples = 2\nvalue = [4, 0]\nclass = pass", fillcolor="#e58139"] ;
109 -> 111 ;
112 [label="gini = 0.0\nsamples = 3\nvalue = [5, 0]\nclass = pass", fillcolor="#e58139"] ;
106 -> 112 ;
113 [label="gini = 0.0\nsamples = 1\nvalue = [0, 1]\nclass = fail", fillcolor="#399de5"] ;
103 -> 113 ;
114 [label="age <= 3.05\ngini = 0.36\nsamples = 542\nvalue = [647, 195]\nclass = pass", fillcolor="#eda775"] ;
6 -> 114 ;
115 [label="age <= 2.99\ngini = 0.44\nsamples = 214\nvalue = [230, 110]\nclass = pass", fillcolor="#f1bd98"] ;
114 -> 115 ;
116 [label="age <= 2.94\ngini = 0.36\nsamples = 133\nvalue = [156, 48]\nclass = pass", fillcolor="#eda876"] ;
115 -> 116 ;
117 [label="age <= 2.9\ngini = 0.3\nsamples = 78\nvalue = [95, 21]\nclass = pass", fillcolor="#eb9d65"] ;
116 -> 117 ;
118 [label="hours_studied <= 1.21\ngini = 0.35\nsamples = 65\nvalue = [73, 21]\nclass = pass", fillcolor="#eca572"] ;
117 -> 118 ;
119 [label="gini = 0.0\nsamples = 1\nvalue = [0, 1]\nclass = fail", fillcolor="#399de5"] ;
118 -> 119 ;
120 [label="hours_studied <= 1.34\ngini = 0.34\nsamples = 64\nvalue = [73, 20]\nclass = pass", fillcolor="#eca46f"] ;
118 -> 120 ;
121 [label="hours_studied <= 1.3\ngini = 0.13\nsamples = 9\nvalue = [13, 1]\nclass = pass", fillcolor="#e78b48"] ;
120 -> 121 ;
122 [label="hours_studied <= 1.29\ngini = 0.24\nsamples = 4\nvalue = [6, 1]\nclass = pass", fillcolor="#e9965a"] ;
121 -> 122 ;
123 [label="gini = 0.0\nsamples = 3\nvalue = [6, 0]\nclass = pass", fillcolor="#e58139"] ;
122 -> 123 ;
124 [label="gini = 0.0\nsamples = 1\nvalue = [0, 1]\nclass = fail", fillcolor="#399de5"] ;
122 -> 124 ;
125 [label="gini = 0.0\nsamples = 5\nvalue = [7, 0]\nclass = pass", fillcolor="#e58139"] ;
121 -> 125 ;
126 [label="hours_studied <= 1.36\ngini = 0.37\nsamples = 55\nvalue = [60, 19]\nclass = pass", fillcolor="#eda978"] ;
120 -> 126 ;
127 [label="gini = 0.0\nsamples = 2\nvalue = [0, 3]\nclass = fail", fillcolor="#399de5"] ;
126 -> 127 ;
128 [label="hours_studied <= 1.71\ngini = 0.33\nsamples = 53\nvalue = [60, 16]\nclass = pass", fillcolor="#eca36e"] ;
126 -> 128 ;
129 [label="hours_studied <= 1.4\ngini = 0.32\nsamples = 49\nvalue = [57, 14]\nclass = pass", fillcolor="#eba06a"] ;
128 -> 129 ;
130 [label="hours_studied <= 1.39\ngini = 0.34\nsamples = 40\nvalue = [48, 13]\nclass = pass", fillcolor="#eca36f"] ;
129 -> 130 ;
131 [label="hours_studied <= 1.38\ngini = 0.3\nsamples = 39\nvalue = [48, 11]\nclass = pass", fillcolor="#eb9e66"] ;
130 -> 131 ;
132 [label="gini = 0.31\nsamples = 37\nvalue = [46, 11]\nclass = pass", fillcolor="#eb9f68"] ;
131 -> 132 ;
133 [label="gini = 0.0\nsamples = 2\nvalue = [2, 0]\nclass = pass", fillcolor="#e58139"] ;
131 -> 133 ;
134 [label="gini = 0.0\nsamples = 1\nvalue = [0, 2]\nclass = fail", fillcolor="#399de5"] ;
130 -> 134 ;
135 [label="hours_studied <= 1.67\ngini = 0.18\nsamples = 9\nvalue = [9, 1]\nclass = pass", fillcolor="#e88f4f"] ;
129 -> 135 ;
136 [label="gini = 0.0\nsamples = 5\nvalue = [5, 0]\nclass = pass", fillcolor="#e58139"] ;
135 -> 136 ;
137 [label="gini = 0.32\nsamples = 4\nvalue = [4, 1]\nclass = pass", fillcolor="#eca06a"] ;
135 -> 137 ;
138 [label="hours_studied <= 1.91\ngini = 0.48\nsamples = 4\nvalue = [3, 2]\nclass = pass", fillcolor="#f6d5bd"] ;
128 -> 138 ;
139 [label="hours_studied <= 1.76\ngini = 0.44\nsamples = 3\nvalue = [1, 2]\nclass = fail", fillcolor="#9ccef2"] ;
138 -> 139 ;
140 [label="gini = 0.0\nsamples = 1\nvalue = [0, 1]\nclass = fail", fillcolor="#399de5"] ;
139 -> 140 ;
141 [label="hours_studied <= 1.81\ngini = 0.5\nsamples = 2\nvalue = [1, 1]\nclass = pass", fillcolor="#ffffff"] ;
139 -> 141 ;
142 [label="gini = 0.0\nsamples = 1\nvalue = [1, 0]\nclass = pass", fillcolor="#e58139"] ;
141 -> 142 ;
143 [label="gini = 0.0\nsamples = 1\nvalue = [0, 1]\nclass = fail", fillcolor="#399de5"] ;
141 -> 143 ;
144 [label="gini = 0.0\nsamples = 1\nvalue = [2, 0]\nclass = pass", fillcolor="#e58139"] ;
138 -> 144 ;
145 [label="gini = 0.0\nsamples = 13\nvalue = [22, 0]\nclass = pass", fillcolor="#e58139"] ;
117 -> 145 ;
146 [label="hours_studied <= 1.19\ngini = 0.43\nsamples = 55\nvalue = [61, 27]\nclass = pass", fillcolor="#f1b991"] ;
116 -> 146 ;
147 [label="gini = 0.0\nsamples = 3\nvalue = [0, 3]\nclass = fail", fillcolor="#399de5"] ;
146 -> 147 ;
148 [label="hours_studied <= 1.33\ngini = 0.41\nsamples = 52\nvalue = [61, 24]\nclass = pass", fillcolor="#efb387"] ;
146 -> 148 ;
149 [label="age <= 2.95\ngini = 0.19\nsamples = 26\nvalue = [34, 4]\nclass = pass", fillcolor="#e89050"] ;
148 -> 149 ;
150 [label="hours_studied <= 1.28\ngini = 0.19\nsamples = 25\nvalue = [33, 4]\nclass = pass", fillcolor="#e89051"] ;
149 -> 150 ;
151 [label="hours_studied <= 1.25\ngini = 0.38\nsamples = 3\nvalue = [3, 1]\nclass = pass", fillcolor="#eeab7b"] ;
150 -> 151 ;
152 [label="gini = 0.0\nsamples = 2\nvalue = [3, 0]\nclass = pass", fillcolor="#e58139"] ;
151 -> 152 ;
153 [label="gini = 0.0\nsamples = 1\nvalue = [0, 1]\nclass = fail", fillcolor="#399de5"] ;
151 -> 153 ;
154 [label="hours_studied <= 1.29\ngini = 0.17\nsamples = 22\nvalue = [30, 3]\nclass = pass", fillcolor="#e88e4d"] ;
150 -> 154 ;
155 [label="hours_studied <= 1.28\ngini = 0.13\nsamples = 19\nvalue = [27, 2]\nclass = pass", fillcolor="#e78a48"] ;
154 -> 155 ;
156 [label="hours_studied <= 1.28\ngini = 0.16\nsamples = 15\nvalue = [21, 2]\nclass = pass", fillcolor="#e78d4c"] ;
155 -> 156 ;
157 [label="gini = 0.0\nsamples = 1\nvalue = [1, 0]\nclass = pass", fillcolor="#e58139"] ;
156 -> 157 ;
158 [label="gini = 0.17\nsamples = 14\nvalue = [20, 2]\nclass = pass", fillcolor="#e88e4d"] ;
156 -> 158 ;
159 [label="gini = 0.0\nsamples = 4\nvalue = [6, 0]\nclass = pass", fillcolor="#e58139"] ;
155 -> 159 ;
160 [label="hours_studied <= 1.29\ngini = 0.38\nsamples = 3\nvalue = [3, 1]\nclass = pass", fillcolor="#eeab7b"] ;
154 -> 160 ;
161 [label="gini = 0.0\nsamples = 1\nvalue = [0, 1]\nclass = fail", fillcolor="#399de5"] ;
160 -> 161 ;
162 [label="gini = 0.0\nsamples = 2\nvalue = [3, 0]\nclass = pass", fillcolor="#e58139"] ;
160 -> 162 ;
163 [label="gini = 0.0\nsamples = 1\nvalue = [1, 0]\nclass = pass", fillcolor="#e58139"] ;
149 -> 163 ;
164 [label="age <= 2.95\ngini = 0.49\nsamples = 26\nvalue = [27, 20]\nclass = pass", fillcolor="#f8decc"] ;
148 -> 164 ;
165 [label="hours_studied <= 1.38\ngini = 0.5\nsamples = 20\nvalue = [18, 20]\nclass = fail", fillcolor="#ebf5fc"] ;
164 -> 165 ;
166 [label="gini = 0.0\nsamples = 3\nvalue = [0, 10]\nclass = fail", fillcolor="#399de5"] ;
165 -> 166 ;
167 [label="hours_studied <= 1.89\ngini = 0.46\nsamples = 17\nvalue = [18, 10]\nclass = pass", fillcolor="#f3c7a7"] ;
165 -> 167 ;
168 [label="hours_studied <= 1.81\ngini = 0.4\nsamples = 16\nvalue = [18, 7]\nclass = pass", fillcolor="#efb286"] ;
167 -> 168 ;
169 [label="hours_studied <= 1.74\ngini = 0.45\nsamples = 12\nvalue = [13, 7]\nclass = pass", fillcolor="#f3c5a4"] ;
168 -> 169 ;
170 [label="hours_studied <= 1.42\ngini = 0.43\nsamples = 11\nvalue = [13, 6]\nclass = pass", fillcolor="#f1bb94"] ;
169 -> 170 ;
171 [label="gini = 0.0\nsamples = 1\nvalue = [2, 0]\nclass = pass", fillcolor="#e58139"] ;
170 -> 171 ;
172 [label="hours_studied <= 1.46\ngini = 0.46\nsamples = 10\nvalue = [11, 6]\nclass = pass", fillcolor="#f3c6a5"] ;
170 -> 172 ;
173 [label="gini = 0.0\nsamples = 1\nvalue = [0, 2]\nclass = fail", fillcolor="#399de5"] ;
172 -> 173 ;
174 [label="hours_studied <= 1.57\ngini = 0.39\nsamples = 9\nvalue = [11, 4]\nclass = pass", fillcolor="#eeaf81"] ;
172 -> 174 ;
175 [label="gini = 0.0\nsamples = 3\nvalue = [4, 0]\nclass = pass", fillcolor="#e58139"] ;
174 -> 175 ;
176 [label="hours_studied <= 1.58\ngini = 0.46\nsamples = 6\nvalue = [7, 4]\nclass = pass", fillcolor="#f4c9aa"] ;
174 -> 176 ;
177 [label="gini = 0.0\nsamples = 1\nvalue = [0, 2]\nclass = fail", fillcolor="#399de5"] ;
176 -> 177 ;
178 [label="hours_studied <= 1.66\ngini = 0.35\nsamples = 5\nvalue = [7, 2]\nclass = pass", fillcolor="#eca572"] ;
176 -> 178 ;
179 [label="gini = 0.0\nsamples = 2\nvalue = [5, 0]\nclass = pass", fillcolor="#e58139"] ;
178 -> 179 ;
180 [label="gini = 0.5\nsamples = 3\nvalue = [2, 2]\nclass = pass", fillcolor="#ffffff"] ;
178 -> 180 ;
181 [label="gini = 0.0\nsamples = 1\nvalue = [0, 1]\nclass = fail", fillcolor="#399de5"] ;
169 -> 181 ;
182 [label="gini = 0.0\nsamples = 4\nvalue = [5, 0]\nclass = pass", fillcolor="#e58139"] ;
168 -> 182 ;
183 [label="gini = 0.0\nsamples = 1\nvalue = [0, 3]\nclass = fail", fillcolor="#399de5"] ;
167 -> 183 ;
184 [label="gini = 0.0\nsamples = 6\nvalue = [9, 0]\nclass = pass", fillcolor="#e58139"] ;
164 -> 184 ;
185 [label="hours_studied <= 1.28\ngini = 0.5\nsamples = 81\nvalue = [74, 62]\nclass = pass", fillcolor="#fbebdf"] ;
115 -> 185 ;
186 [label="age <= 3.02\ngini = 0.27\nsamples = 19\nvalue = [6, 31]\nclass = fail", fillcolor="#5fb0ea"] ;
185 -> 186 ;
187 [label="gini = 0.0\nsamples = 1\nvalue = [0, 2]\nclass = fail", fillcolor="#399de5"] ;
186 -> 187 ;
188 [label="hours_studied <= 1.26\ngini = 0.28\nsamples = 18\nvalue = [6, 29]\nclass = fail", fillcolor="#62b1ea"] ;
186 -> 188 ;
189 [label="hours_studied <= 1.23\ngini = 0.28\nsamples = 3\nvalue = [5, 1]\nclass = pass", fillcolor="#ea9a61"] ;
188 -> 189 ;
190 [label="hours_studied <= 1.17\ngini = 0.44\nsamples = 2\nvalue = [2, 1]\nclass = pass", fillcolor="#f2c09c"] ;
189 -> 190 ;
191 [label="gini = 0.0\nsamples = 1\nvalue = [2, 0]\nclass = pass", fillcolor="#e58139"] ;
190 -> 191 ;
192 [label="gini = 0.0\nsamples = 1\nvalue = [0, 1]\nclass = fail", fillcolor="#399de5"] ;
190 -> 192 ;
193 [label="gini = 0.0\nsamples = 1\nvalue = [3, 0]\nclass = pass", fillcolor="#e58139"] ;
189 -> 193 ;
194 [label="gini = 0.07\nsamples = 15\nvalue = [1, 28]\nclass = fail", fillcolor="#40a0e6"] ;
188 -> 194 ;
195 [label="age <= 3.0\ngini = 0.43\nsamples = 62\nvalue = [68, 31]\nclass = pass", fillcolor="#f1ba93"] ;
185 -> 195 ;
196 [label="hours_studied <= 1.77\ngini = 0.47\nsamples = 17\nvalue = [13, 21]\nclass = fail", fillcolor="#b4daf5"] ;
195 -> 196 ;
197 [label="hours_studied <= 1.45\ngini = 0.49\nsamples = 11\nvalue = [13, 10]\nclass = pass", fillcolor="#f9e2d1"] ;
196 -> 197 ;
198 [label="gini = 0.0\nsamples = 2\nvalue = [0, 7]\nclass = fail", fillcolor="#399de5"] ;
197 -> 198 ;
199 [label="hours_studied <= 1.55\ngini = 0.3\nsamples = 9\nvalue = [13, 3]\nclass = pass", fillcolor="#eb9e67"] ;
197 -> 199 ;
200 [label="gini = 0.0\nsamples = 2\nvalue = [6, 0]\nclass = pass", fillcolor="#e58139"] ;
199 -> 200 ;
201 [label="hours_studied <= 1.62\ngini = 0.42\nsamples = 7\nvalue = [7, 3]\nclass = pass", fillcolor="#f0b78e"] ;
199 -> 201 ;
202 [label="gini = 0.0\nsamples = 1\nvalue = [0, 2]\nclass = fail", fillcolor="#399de5"] ;
201 -> 202 ;
203 [label="hours_studied <= 1.73\ngini = 0.22\nsamples = 6\nvalue = [7, 1]\nclass = pass", fillcolor="#e99355"] ;
201 -> 203 ;
204 [label="gini = 0.0\nsamples = 4\nvalue = [6, 0]\nclass = pass", fillcolor="#e58139"] ;
203 -> 204 ;
205 [label="hours_studied <= 1.76\ngini = 0.5\nsamples = 2\nvalue = [1, 1]\nclass = pass", fillcolor="#ffffff"] ;
203 -> 205 ;
206 [label="gini = 0.0\nsamples = 1\nvalue = [0, 1]\nclass = fail", fillcolor="#399de5"] ;
205 -> 206 ;
207 [label="gini = 0.0\nsamples = 1\nvalue = [1, 0]\nclass = pass", fillcolor="#e58139"] ;
205 -> 207 ;
208 [label="gini = 0.0\nsamples = 6\nvalue = [0, 11]\nclass = fail", fillcolor="#399de5"] ;
196 -> 208 ;
209 [label="age <= 3.04\ngini = 0.26\nsamples = 45\nvalue = [55, 10]\nclass = pass", fillcolor="#ea985d"] ;
195 -> 209 ;
210 [label="gini = 0.0\nsamples = 8\nvalue = [9, 0]\nclass = pass", fillcolor="#e58139"] ;
209 -> 210 ;
211 [label="hours_studied <= 1.44\ngini = 0.29\nsamples = 37\nvalue = [46, 10]\nclass = pass", fillcolor="#eb9c64"] ;
209 -> 211 ;
212 [label="gini = 0.0\nsamples = 6\nvalue = [9, 0]\nclass = pass", fillcolor="#e58139"] ;
211 -> 212 ;
213 [label="hours_studied <= 1.57\ngini = 0.33\nsamples = 31\nvalue = [37, 10]\nclass = pass", fillcolor="#eca36f"] ;
211 -> 213 ;
214 [label="gini = 0.0\nsamples = 2\nvalue = [0, 2]\nclass = fail", fillcolor="#399de5"] ;
213 -> 214 ;
215 [label="hours_studied <= 1.69\ngini = 0.29\nsamples = 29\nvalue = [37, 8]\nclass = pass", fillcolor="#eb9c64"] ;
213 -> 215 ;
216 [label="hours_studied <= 1.63\ngini = 0.39\nsamples = 16\nvalue = [17, 6]\nclass = pass", fillcolor="#eead7f"] ;
215 -> 216 ;
217 [label="hours_studied <= 1.61\ngini = 0.31\nsamples = 15\nvalue = [17, 4]\nclass = pass", fillcolor="#eb9f68"] ;
216 -> 217 ;
218 [label="gini = 0.0\nsamples = 4\nvalue = [4, 0]\nclass = pass", fillcolor="#e58139"] ;
217 -> 218 ;
219 [label="hours_studied <= 1.61\ngini = 0.36\nsamples = 11\nvalue = [13, 4]\nclass = pass", fillcolor="#eda876"] ;
217 -> 219 ;
220 [label="gini = 0.0\nsamples = 1\nvalue = [0, 1]\nclass = fail", fillcolor="#399de5"] ;
219 -> 220 ;
221 [label="hours_studied <= 1.62\ngini = 0.3\nsamples = 10\nvalue = [13, 3]\nclass = pass", fillcolor="#eb9e67"] ;
219 -> 221 ;
222 [label="gini = 0.0\nsamples = 2\nvalue = [4, 0]\nclass = pass", fillcolor="#e58139"] ;
221 -> 222 ;
223 [label="gini = 0.38\nsamples = 8\nvalue = [9, 3]\nclass = pass", fillcolor="#eeab7b"] ;
221 -> 223 ;
224 [label="gini = 0.0\nsamples = 1\nvalue = [0, 2]\nclass = fail", fillcolor="#399de5"] ;
216 -> 224 ;
225 [label="hours_studied <= 1.81\ngini = 0.17\nsamples = 13\nvalue = [20, 2]\nclass = pass", fillcolor="#e88e4d"] ;
215 -> 225 ;
226 [label="gini = 0.0\nsamples = 7\nvalue = [12, 0]\nclass = pass", fillcolor="#e58139"] ;
225 -> 226 ;
227 [label="hours_studied <= 1.88\ngini = 0.32\nsamples = 6\nvalue = [8, 2]\nclass = pass", fillcolor="#eca06a"] ;
225 -> 227 ;
228 [label="gini = 0.0\nsamples = 1\nvalue = [0, 1]\nclass = fail", fillcolor="#399de5"] ;
227 -> 228 ;
229 [label="hours_studied <= 1.94\ngini = 0.2\nsamples = 5\nvalue = [8, 1]\nclass = pass", fillcolor="#e89152"] ;
227 -> 229 ;
230 [label="gini = 0.0\nsamples = 2\nvalue = [4, 0]\nclass = pass", fillcolor="#e58139"] ;
229 -> 230 ;
231 [label="hours_studied <= 1.96\ngini = 0.32\nsamples = 3\nvalue = [4, 1]\nclass = pass", fillcolor="#eca06a"] ;
229 -> 231 ;
232 [label="gini = 0.0\nsamples = 1\nvalue = [0, 1]\nclass = fail", fillcolor="#399de5"] ;
231 -> 232 ;
233 [label="gini = 0.0\nsamples = 2\nvalue = [4, 0]\nclass = pass", fillcolor="#e58139"] ;
231 -> 233 ;
234 [label="age <= 3.29\ngini = 0.28\nsamples = 328\nvalue = [417, 85]\nclass = pass", fillcolor="#ea9b61"] ;
114 -> 234 ;
235 [label="age <= 3.09\ngini = 0.26\nsamples = 297\nvalue = [381, 71]\nclass = pass", fillcolor="#ea985e"] ;
234 -> 235 ;
236 [label="hours_studied <= 1.92\ngini = 0.35\nsamples = 65\nvalue = [76, 22]\nclass = pass", fillcolor="#eda572"] ;
235 -> 236 ;
237 [label="hours_studied <= 1.76\ngini = 0.3\nsamples = 63\nvalue = [76, 17]\nclass = pass", fillcolor="#eb9d65"] ;
236 -> 237 ;
238 [label="age <= 3.09\ngini = 0.25\nsamples = 54\nvalue = [69, 12]\nclass = pass", fillcolor="#ea975b"] ;
237 -> 238 ;
239 [label="gini = 0.0\nsamples = 11\nvalue = [14, 0]\nclass = pass", fillcolor="#e58139"] ;
238 -> 239 ;
240 [label="hours_studied <= 1.65\ngini = 0.29\nsamples = 43\nvalue = [55, 12]\nclass = pass", fillcolor="#eb9c64"] ;
238 -> 240 ;
241 [label="hours_studied <= 1.56\ngini = 0.35\nsamples = 34\nvalue = [42, 12]\nclass = pass", fillcolor="#eca572"] ;
240 -> 241 ;
242 [label="hours_studied <= 1.51\ngini = 0.32\nsamples = 31\nvalue = [41, 10]\nclass = pass", fillcolor="#eba069"] ;
241 -> 242 ;
243 [label="hours_studied <= 1.43\ngini = 0.14\nsamples = 8\nvalue = [12, 1]\nclass = pass", fillcolor="#e78c49"] ;
242 -> 243 ;
244 [label="hours_studied <= 1.3\ngini = 0.32\nsamples = 4\nvalue = [4, 1]\nclass = pass", fillcolor="#eca06a"] ;
243 -> 244 ;
245 [label="gini = 0.0\nsamples = 3\nvalue = [4, 0]\nclass = pass", fillcolor="#e58139"] ;
244 -> 245 ;
246 [label="gini = 0.0\nsamples = 1\nvalue = [0, 1]\nclass = fail", fillcolor="#399de5"] ;
244 -> 246 ;
247 [label="gini = 0.0\nsamples = 4\nvalue = [8, 0]\nclass = pass", fillcolor="#e58139"] ;
243 -> 247 ;
248 [label="gini = 0.36\nsamples = 23\nvalue = [29, 9]\nclass = pass", fillcolor="#eda876"] ;
242 -> 248 ;
249 [label="hours_studied <= 1.61\ngini = 0.44\nsamples = 3\nvalue = [1, 2]\nclass = fail", fillcolor="#9ccef2"] ;
241 -> 249 ;
250 [label="gini = 0.0\nsamples = 1\nvalue = [0, 1]\nclass = fail", fillcolor="#399de5"] ;
249 -> 250 ;
251 [label="hours_studied <= 1.63\ngini = 0.5\nsamples = 2\nvalue = [1, 1]\nclass = pass", fillcolor="#ffffff"] ;
249 -> 251 ;
252 [label="gini = 0.0\nsamples = 1\nvalue = [1, 0]\nclass = pass", fillcolor="#e58139"] ;
251 -> 252 ;
253 [label="gini = 0.0\nsamples = 1\nvalue = [0, 1]\nclass = fail", fillcolor="#399de5"] ;
251 -> 253 ;
254 [label="gini = 0.0\nsamples = 9\nvalue = [13, 0]\nclass = pass", fillcolor="#e58139"] ;
240 -> 254 ;
255 [label="hours_studied <= 1.86\ngini = 0.49\nsamples = 9\nvalue = [7, 5]\nclass = pass", fillcolor="#f8dbc6"] ;
237 -> 255 ;
256 [label="gini = 0.0\nsamples = 3\nvalue = [0, 5]\nclass = fail", fillcolor="#399de5"] ;
255 -> 256 ;
257 [label="gini = 0.0\nsamples = 6\nvalue = [7, 0]\nclass = pass", fillcolor="#e58139"] ;
255 -> 257 ;
258 [label="gini = 0.0\nsamples = 2\nvalue = [0, 5]\nclass = fail", fillcolor="#399de5"] ;
236 -> 258 ;
259 [label="age <= 3.22\ngini = 0.24\nsamples = 232\nvalue = [305, 49]\nclass = pass", fillcolor="#e99559"] ;
235 -> 259 ;
260 [label="hours_studied <= 1.25\ngini = 0.2\nsamples = 127\nvalue = [167, 21]\nclass = pass", fillcolor="#e89152"] ;
259 -> 260 ;
261 [label="hours_studied <= 1.12\ngini = 0.48\nsamples = 9\nvalue = [6, 9]\nclass = fail", fillcolor="#bddef6"] ;
260 -> 261 ;
262 [label="age <= 3.13\ngini = 0.41\nsamples = 5\nvalue = [5, 2]\nclass = pass", fillcolor="#efb388"] ;
261 -> 262 ;
263 [label="gini = 0.0\nsamples = 3\nvalue = [4, 0]\nclass = pass", fillcolor="#e58139"] ;
262 -> 263 ;
264 [label="hours_studied <= 1.11\ngini = 0.44\nsamples = 2\nvalue = [1, 2]\nclass = fail", fillcolor="#9ccef2"] ;
262 -> 264 ;
265 [label="gini = 0.0\nsamples = 1\nvalue = [0, 2]\nclass = fail", fillcolor="#399de5"] ;
264 -> 265 ;
266 [label="gini = 0.0\nsamples = 1\nvalue = [1, 0]\nclass = pass", fillcolor="#e58139"] ;
264 -> 266 ;
267 [label="hours_studied <= 1.19\ngini = 0.22\nsamples = 4\nvalue = [1, 7]\nclass = fail", fillcolor="#55abe9"] ;
261 -> 267 ;
268 [label="gini = 0.0\nsamples = 2\nvalue = [0, 5]\nclass = fail", fillcolor="#399de5"] ;
267 -> 268 ;
269 [label="age <= 3.16\ngini = 0.44\nsamples = 2\nvalue = [1, 2]\nclass = fail", fillcolor="#9ccef2"] ;
267 -> 269 ;
270 [label="gini = 0.0\nsamples = 1\nvalue = [0, 2]\nclass = fail", fillcolor="#399de5"] ;
269 -> 270 ;
271 [label="gini = 0.0\nsamples = 1\nvalue = [1, 0]\nclass = pass", fillcolor="#e58139"] ;
269 -> 271 ;
272 [label="hours_studied <= 1.58\ngini = 0.13\nsamples = 118\nvalue = [161, 12]\nclass = pass", fillcolor="#e78a48"] ;
260 -> 272 ;
273 [label="age <= 3.18\ngini = 0.06\nsamples = 43\nvalue = [63, 2]\nclass = pass", fillcolor="#e6853f"] ;
272 -> 273 ;
274 [label="hours_studied <= 1.48\ngini = 0.07\nsamples = 35\nvalue = [51, 2]\nclass = pass", fillcolor="#e68641"] ;
273 -> 274 ;
275 [label="hours_studied <= 1.43\ngini = 0.17\nsamples = 13\nvalue = [19, 2]\nclass = pass", fillcolor="#e88e4e"] ;
274 -> 275 ;
276 [label="hours_studied <= 1.35\ngini = 0.09\nsamples = 12\nvalue = [19, 1]\nclass = pass", fillcolor="#e68843"] ;
275 -> 276 ;
277 [label="hours_studied <= 1.32\ngini = 0.2\nsamples = 6\nvalue = [8, 1]\nclass = pass", fillcolor="#e89152"] ;
276 -> 277 ;
278 [label="gini = 0.0\nsamples = 5\nvalue = [8, 0]\nclass = pass", fillcolor="#e58139"] ;
277 -> 278 ;
279 [label="gini = 0.0\nsamples = 1\nvalue = [0, 1]\nclass = fail", fillcolor="#399de5"] ;
277 -> 279 ;
280 [label="gini = 0.0\nsamples = 6\nvalue = [11, 0]\nclass = pass", fillcolor="#e58139"] ;
276 -> 280 ;
281 [label="gini = 0.0\nsamples = 1\nvalue = [0, 1]\nclass = fail", fillcolor="#399de5"] ;
275 -> 281 ;
282 [label="gini = 0.0\nsamples = 22\nvalue = [32, 0]\nclass = pass", fillcolor="#e58139"] ;
274 -> 282 ;
283 [label="gini = 0.0\nsamples = 8\nvalue = [12, 0]\nclass = pass", fillcolor="#e58139"] ;
273 -> 283 ;
284 [label="age <= 3.13\ngini = 0.17\nsamples = 75\nvalue = [98, 10]\nclass = pass", fillcolor="#e88e4d"] ;
272 -> 284 ;
285 [label="gini = 0.0\nsamples = 2\nvalue = [5, 0]\nclass = pass", fillcolor="#e58139"] ;
284 -> 285 ;
286 [label="age <= 3.19\ngini = 0.18\nsamples = 73\nvalue = [93, 10]\nclass = pass", fillcolor="#e88f4e"] ;
284 -> 286 ;
287 [label="hours_studied <= 1.71\ngini = 0.18\nsamples = 70\nvalue = [90, 10]\nclass = pass", fillcolor="#e88f4f"] ;
286 -> 287 ;
288 [label="gini = 0.0\nsamples = 4\nvalue = [0, 4]\nclass = fail", fillcolor="#399de5"] ;
287 -> 288 ;
289 [label="age <= 3.18\ngini = 0.12\nsamples = 66\nvalue = [90, 6]\nclass = pass", fillcolor="#e78946"] ;
287 -> 289 ;
290 [label="hours_studied <= 1.96\ngini = 0.05\nsamples = 25\nvalue = [35, 1]\nclass = pass", fillcolor="#e6853f"] ;
289 -> 290 ;
291 [label="gini = 0.0\nsamples = 8\nvalue = [13, 0]\nclass = pass", fillcolor="#e58139"] ;
290 -> 291 ;
292 [label="hours_studied <= 1.97\ngini = 0.08\nsamples = 17\nvalue = [22, 1]\nclass = pass", fillcolor="#e68742"] ;
290 -> 292 ;
293 [label="gini = 0.1\nsamples = 14\nvalue = [18, 1]\nclass = pass", fillcolor="#e68844"] ;
292 -> 293 ;
294 [label="gini = 0.0\nsamples = 3\nvalue = [4, 0]\nclass = pass", fillcolor="#e58139"] ;
292 -> 294 ;
295 [label="hours_studied <= 1.8\ngini = 0.15\nsamples = 41\nvalue = [55, 5]\nclass = pass", fillcolor="#e78c4b"] ;
289 -> 295 ;
296 [label="hours_studied <= 1.79\ngini = 0.19\nsamples = 33\nvalue = [42, 5]\nclass = pass", fillcolor="#e89051"] ;
295 -> 296 ;
297 [label="hours_studied <= 1.79\ngini = 0.12\nsamples = 32\nvalue = [42, 3]\nclass = pass", fillcolor="#e78a47"] ;
296 -> 297 ;
298 [label="gini = 0.13\nsamples = 31\nvalue = [41, 3]\nclass = pass", fillcolor="#e78a47"] ;
297 -> 298 ;
299 [label="gini = 0.0\nsamples = 1\nvalue = [1, 0]\nclass = pass", fillcolor="#e58139"] ;
297 -> 299 ;
300 [label="gini = 0.0\nsamples = 1\nvalue = [0, 2]\nclass = fail", fillcolor="#399de5"] ;
296 -> 300 ;
301 [label="gini = 0.0\nsamples = 8\nvalue = [13, 0]\nclass = pass", fillcolor="#e58139"] ;
295 -> 301 ;
302 [label="gini = 0.0\nsamples = 3\nvalue = [3, 0]\nclass = pass", fillcolor="#e58139"] ;
286 -> 302 ;
303 [label="hours_studied <= 1.64\ngini = 0.28\nsamples = 105\nvalue = [138, 28]\nclass = pass", fillcolor="#ea9b61"] ;
259 -> 303 ;
304 [label="age <= 3.22\ngini = 0.38\nsamples = 50\nvalue = [55, 19]\nclass = pass", fillcolor="#eead7d"] ;
303 -> 304 ;
305 [label="hours_studied <= 1.38\ngini = 0.5\nsamples = 11\nvalue = [8, 9]\nclass = fail", fillcolor="#e9f4fc"] ;
304 -> 305 ;
306 [label="gini = 0.0\nsamples = 6\nvalue = [8, 0]\nclass = pass", fillcolor="#e58139"] ;
305 -> 306 ;
307 [label="gini = 0.0\nsamples = 5\nvalue = [0, 9]\nclass = fail", fillcolor="#399de5"] ;
305 -> 307 ;
308 [label="age <= 3.26\ngini = 0.29\nsamples = 39\nvalue = [47, 10]\nclass = pass", fillcolor="#eb9c63"] ;
304 -> 308 ;
309 [label="gini = 0.0\nsamples = 13\nvalue = [18, 0]\nclass = pass", fillcolor="#e58139"] ;
308 -> 309 ;
310 [label="age <= 3.26\ngini = 0.38\nsamples = 26\nvalue = [29, 10]\nclass = pass", fillcolor="#eeac7d"] ;
308 -> 310 ;
311 [label="hours_studied <= 1.43\ngini = 0.43\nsamples = 22\nvalue = [22, 10]\nclass = pass", fillcolor="#f1ba93"] ;
310 -> 311 ;
312 [label="hours_studied <= 1.23\ngini = 0.49\nsamples = 15\nvalue = [12, 9]\nclass = pass", fillcolor="#f8e0ce"] ;
311 -> 312 ;
313 [label="gini = 0.0\nsamples = 1\nvalue = [0, 1]\nclass = fail", fillcolor="#399de5"] ;
312 -> 313 ;
314 [label="hours_studied <= 1.28\ngini = 0.48\nsamples = 14\nvalue = [12, 8]\nclass = pass", fillcolor="#f6d5bd"] ;
312 -> 314 ;
315 [label="gini = 0.0\nsamples = 1\nvalue = [2, 0]\nclass = pass", fillcolor="#e58139"] ;
314 -> 315 ;
316 [label="hours_studied <= 1.29\ngini = 0.49\nsamples = 13\nvalue = [10, 8]\nclass = pass", fillcolor="#fae6d7"] ;
314 -> 316 ;
317 [label="gini = 0.0\nsamples = 1\nvalue = [0, 2]\nclass = fail", fillcolor="#399de5"] ;
316 -> 317 ;
318 [label="hours_studied <= 1.33\ngini = 0.47\nsamples = 12\nvalue = [10, 6]\nclass = pass", fillcolor="#f5cdb0"] ;
316 -> 318 ;
319 [label="gini = 0.0\nsamples = 1\nvalue = [1, 0]\nclass = pass", fillcolor="#e58139"] ;
318 -> 319 ;
320 [label="hours_studied <= 1.39\ngini = 0.48\nsamples = 11\nvalue = [9, 6]\nclass = pass", fillcolor="#f6d5bd"] ;
318 -> 320 ;
321 [label="gini = 0.0\nsamples = 1\nvalue = [0, 1]\nclass = fail", fillcolor="#399de5"] ;
320 -> 321 ;
322 [label="gini = 0.46\nsamples = 10\nvalue = [9, 5]\nclass = pass", fillcolor="#f3c7a7"] ;
320 -> 322 ;
323 [label="hours_studied <= 1.52\ngini = 0.17\nsamples = 7\nvalue = [10, 1]\nclass = pass", fillcolor="#e88e4d"] ;
311 -> 323 ;
324 [label="gini = 0.0\nsamples = 6\nvalue = [10, 0]\nclass = pass", fillcolor="#e58139"] ;
323 -> 324 ;
325 [label="gini = 0.0\nsamples = 1\nvalue = [0, 1]\nclass = fail", fillcolor="#399de5"] ;
323 -> 325 ;
326 [label="gini = 0.0\nsamples = 4\nvalue = [7, 0]\nclass = pass", fillcolor="#e58139"] ;
310 -> 326 ;
327 [label="hours_studied <= 1.68\ngini = 0.18\nsamples = 55\nvalue = [83, 9]\nclass = pass", fillcolor="#e88f4e"] ;
303 -> 327 ;
328 [label="hours_studied <= 1.65\ngini = 0.05\nsamples = 26\nvalue = [42, 1]\nclass = pass", fillcolor="#e6843e"] ;
327 -> 328 ;
329 [label="hours_studied <= 1.65\ngini = 0.08\nsamples = 13\nvalue = [24, 1]\nclass = pass", fillcolor="#e68641"] ;
328 -> 329 ;
330 [label="gini = 0.0\nsamples = 4\nvalue = [7, 0]\nclass = pass", fillcolor="#e58139"] ;
329 -> 330 ;
331 [label="gini = 0.1\nsamples = 9\nvalue = [17, 1]\nclass = pass", fillcolor="#e78845"] ;
329 -> 331 ;
332 [label="gini = 0.0\nsamples = 13\nvalue = [18, 0]\nclass = pass", fillcolor="#e58139"] ;
328 -> 332 ;
333 [label="hours_studied <= 1.69\ngini = 0.27\nsamples = 29\nvalue = [41, 8]\nclass = pass", fillcolor="#ea9a60"] ;
327 -> 333 ;
334 [label="gini = 0.0\nsamples = 1\nvalue = [0, 5]\nclass = fail", fillcolor="#399de5"] ;
333 -> 334 ;
335 [label="hours_studied <= 1.96\ngini = 0.13\nsamples = 28\nvalue = [41, 3]\nclass = pass", fillcolor="#e78a47"] ;
333 -> 335 ;
336 [label="hours_studied <= 1.77\ngini = 0.09\nsamples = 26\nvalue = [39, 2]\nclass = pass", fillcolor="#e68743"] ;
335 -> 336 ;
337 [label="gini = 0.0\nsamples = 15\nvalue = [23, 0]\nclass = pass", fillcolor="#e58139"] ;
336 -> 337 ;
338 [label="hours_studied <= 1.81\ngini = 0.2\nsamples = 11\nvalue = [16, 2]\nclass = pass", fillcolor="#e89152"] ;
336 -> 338 ;
339 [label="gini = 0.0\nsamples = 2\nvalue = [0, 2]\nclass = fail", fillcolor="#399de5"] ;
338 -> 339 ;
340 [label="gini = 0.0\nsamples = 9\nvalue = [16, 0]\nclass = pass", fillcolor="#e58139"] ;
338 -> 340 ;
341 [label="hours_studied <= 1.96\ngini = 0.44\nsamples = 2\nvalue = [2, 1]\nclass = pass", fillcolor="#f2c09c"] ;
335 -> 341 ;
342 [label="gini = 0.0\nsamples = 1\nvalue = [0, 1]\nclass = fail", fillcolor="#399de5"] ;
341 -> 342 ;
343 [label="gini = 0.0\nsamples = 1\nvalue = [2, 0]\nclass = pass", fillcolor="#e58139"] ;
341 -> 343 ;
344 [label="hours_studied <= 1.82\ngini = 0.4\nsamples = 31\nvalue = [36, 14]\nclass = pass", fillcolor="#efb286"] ;
234 -> 344 ;
345 [label="hours_studied <= 1.72\ngini = 0.32\nsamples = 26\nvalue = [32, 8]\nclass = pass", fillcolor="#eca06a"] ;
344 -> 345 ;
346 [label="hours_studied <= 1.58\ngini = 0.43\nsamples = 13\nvalue = [13, 6]\nclass = pass", fillcolor="#f1bb94"] ;
345 -> 346 ;
347 [label="hours_studied <= 1.54\ngini = 0.23\nsamples = 9\nvalue = [13, 2]\nclass = pass", fillcolor="#e99457"] ;
346 -> 347 ;
348 [label="gini = 0.0\nsamples = 6\nvalue = [9, 0]\nclass = pass", fillcolor="#e58139"] ;
347 -> 348 ;
349 [label="hours_studied <= 1.55\ngini = 0.44\nsamples = 3\nvalue = [4, 2]\nclass = pass", fillcolor="#f2c09c"] ;
347 -> 349 ;
350 [label="gini = 0.0\nsamples = 1\nvalue = [0, 2]\nclass = fail", fillcolor="#399de5"] ;
349 -> 350 ;
351 [label="gini = 0.0\nsamples = 2\nvalue = [4, 0]\nclass = pass", fillcolor="#e58139"] ;
349 -> 351 ;
352 [label="gini = 0.0\nsamples = 4\nvalue = [0, 4]\nclass = fail", fillcolor="#399de5"] ;
346 -> 352 ;
353 [label="hours_studied <= 1.79\ngini = 0.17\nsamples = 13\nvalue = [19, 2]\nclass = pass", fillcolor="#e88e4e"] ;
345 -> 353 ;
354 [label="hours_studied <= 1.78\ngini = 0.22\nsamples = 10\nvalue = [14, 2]\nclass = pass", fillcolor="#e99355"] ;
353 -> 354 ;
355 [label="hours_studied <= 1.76\ngini = 0.12\nsamples = 9\nvalue = [14, 1]\nclass = pass", fillcolor="#e78a47"] ;
354 -> 355 ;
356 [label="gini = 0.2\nsamples = 5\nvalue = [8, 1]\nclass = pass", fillcolor="#e89152"] ;
355 -> 356 ;
357 [label="gini = 0.0\nsamples = 4\nvalue = [6, 0]\nclass = pass", fillcolor="#e58139"] ;
355 -> 357 ;
358 [label="gini = 0.0\nsamples = 1\nvalue = [0, 1]\nclass = fail", fillcolor="#399de5"] ;
354 -> 358 ;
359 [label="gini = 0.0\nsamples = 3\nvalue = [5, 0]\nclass = pass", fillcolor="#e58139"] ;
353 -> 359 ;
360 [label="hours_studied <= 1.91\ngini = 0.48\nsamples = 5\nvalue = [4, 6]\nclass = fail", fillcolor="#bddef6"] ;
344 -> 360 ;
361 [label="gini = 0.0\nsamples = 2\nvalue = [0, 4]\nclass = fail", fillcolor="#399de5"] ;
360 -> 361 ;
362 [label="age <= 3.31\ngini = 0.44\nsamples = 3\nvalue = [4, 2]\nclass = pass", fillcolor="#f2c09c"] ;
360 -> 362 ;
363 [label="hours_studied <= 1.95\ngini = 0.5\nsamples = 2\nvalue = [2, 2]\nclass = pass", fillcolor="#ffffff"] ;
362 -> 363 ;
364 [label="gini = 0.0\nsamples = 1\nvalue = [2, 0]\nclass = pass", fillcolor="#e58139"] ;
363 -> 364 ;
365 [label="gini = 0.0\nsamples = 1\nvalue = [0, 2]\nclass = fail", fillcolor="#399de5"] ;
363 -> 365 ;
366 [label="gini = 0.0\nsamples = 1\nvalue = [2, 0]\nclass = pass", fillcolor="#e58139"] ;
362 -> 366 ;
367 [label="age <= 3.22\ngini = 0.44\nsamples = 165\nvalue = [175, 84]\nclass = pass", fillcolor="#f1bd98"] ;
5 -> 367 ;
368 [label="age <= 3.05\ngini = 0.42\nsamples = 149\nvalue = [164, 70]\nclass = pass", fillcolor="#f0b78e"] ;
367 -> 368 ;
369 [label="hours_studied <= 2.0\ngini = 0.45\nsamples = 114\nvalue = [116, 60]\nclass = pass", fillcolor="#f2c29f"] ;
368 -> 369 ;
370 [label="age <= 2.92\ngini = 0.5\nsamples = 28\nvalue = [24, 22]\nclass = pass", fillcolor="#fdf5ef"] ;
369 -> 370 ;
371 [label="gini = 0.0\nsamples = 1\nvalue = [0, 1]\nclass = fail", fillcolor="#399de5"] ;
370 -> 371 ;
372 [label="gini = 0.5\nsamples = 27\nvalue = [24, 21]\nclass = pass", fillcolor="#fcefe6"] ;
370 -> 372 ;
373 [label="age <= 2.99\ngini = 0.41\nsamples = 86\nvalue = [92, 38]\nclass = pass", fillcolor="#f0b58b"] ;
369 -> 373 ;
374 [label="age <= 2.89\ngini = 0.19\nsamples = 30\nvalue = [41, 5]\nclass = pass", fillcolor="#e89051"] ;
373 -> 374 ;
375 [label="hours_studied <= 2.18\ngini = 0.38\nsamples = 11\nvalue = [12, 4]\nclass = pass", fillcolor="#eeab7b"] ;
374 -> 375 ;
376 [label="hours_studied <= 2.07\ngini = 0.24\nsamples = 9\nvalue = [12, 2]\nclass = pass", fillcolor="#e9965a"] ;
375 -> 376 ;
377 [label="hours_studied <= 2.06\ngini = 0.44\nsamples = 5\nvalue = [4, 2]\nclass = pass", fillcolor="#f2c09c"] ;
376 -> 377 ;
378 [label="hours_studied <= 2.04\ngini = 0.32\nsamples = 4\nvalue = [4, 1]\nclass = pass", fillcolor="#eca06a"] ;
377 -> 378 ;
379 [label="gini = 0.0\nsamples = 2\nvalue = [2, 0]\nclass = pass", fillcolor="#e58139"] ;
378 -> 379 ;
380 [label="hours_studied <= 2.05\ngini = 0.44\nsamples = 2\nvalue = [2, 1]\nclass = pass", fillcolor="#f2c09c"] ;
378 -> 380 ;
381 [label="gini = 0.0\nsamples = 1\nvalue = [0, 1]\nclass = fail", fillcolor="#399de5"] ;
380 -> 381 ;
382 [label="gini = 0.0\nsamples = 1\nvalue = [2, 0]\nclass = pass", fillcolor="#e58139"] ;
380 -> 382 ;
383 [label="gini = 0.0\nsamples = 1\nvalue = [0, 1]\nclass = fail", fillcolor="#399de5"] ;
377 -> 383 ;
384 [label="gini = 0.0\nsamples = 4\nvalue = [8, 0]\nclass = pass", fillcolor="#e58139"] ;
376 -> 384 ;
385 [label="gini = 0.0\nsamples = 2\nvalue = [0, 2]\nclass = fail", fillcolor="#399de5"] ;
375 -> 385 ;
386 [label="hours_studied <= 2.39\ngini = 0.06\nsamples = 19\nvalue = [29, 1]\nclass = pass", fillcolor="#e68540"] ;
374 -> 386 ;
387 [label="gini = 0.0\nsamples = 16\nvalue = [25, 0]\nclass = pass", fillcolor="#e58139"] ;
386 -> 387 ;
388 [label="hours_studied <= 2.46\ngini = 0.32\nsamples = 3\nvalue = [4, 1]\nclass = pass", fillcolor="#eca06a"] ;
386 -> 388 ;
389 [label="gini = 0.0\nsamples = 1\nvalue = [0, 1]\nclass = fail", fillcolor="#399de5"] ;
388 -> 389 ;
390 [label="gini = 0.0\nsamples = 2\nvalue = [4, 0]\nclass = pass", fillcolor="#e58139"] ;
388 -> 390 ;
391 [label="hours_studied <= 2.28\ngini = 0.48\nsamples = 56\nvalue = [51, 33]\nclass = pass", fillcolor="#f6d3b9"] ;
373 -> 391 ;
392 [label="hours_studied <= 2.17\ngini = 0.48\nsamples = 12\nvalue = [7, 11]\nclass = fail", fillcolor="#b7dbf6"] ;
391 -> 392 ;
393 [label="hours_studied <= 2.06\ngini = 0.42\nsamples = 8\nvalue = [7, 3]\nclass = pass", fillcolor="#f0b78e"] ;
392 -> 393 ;
394 [label="gini = 0.0\nsamples = 2\nvalue = [4, 0]\nclass = pass", fillcolor="#e58139"] ;
393 -> 394 ;
395 [label="age <= 3.04\ngini = 0.5\nsamples = 6\nvalue = [3, 3]\nclass = pass", fillcolor="#ffffff"] ;
393 -> 395 ;
396 [label="age <= 3.0\ngini = 0.38\nsamples = 4\nvalue = [3, 1]\nclass = pass", fillcolor="#eeab7b"] ;
395 -> 396 ;
397 [label="gini = 0.0\nsamples = 1\nvalue = [0, 1]\nclass = fail", fillcolor="#399de5"] ;
396 -> 397 ;
398 [label="gini = 0.0\nsamples = 3\nvalue = [3, 0]\nclass = pass", fillcolor="#e58139"] ;
396 -> 398 ;
399 [label="gini = 0.0\nsamples = 2\nvalue = [0, 2]\nclass = fail", fillcolor="#399de5"] ;
395 -> 399 ;
400 [label="gini = 0.0\nsamples = 4\nvalue = [0, 8]\nclass = fail", fillcolor="#399de5"] ;
392 -> 400 ;
401 [label="age <= 3.0\ngini = 0.44\nsamples = 44\nvalue = [44, 22]\nclass = pass", fillcolor="#f2c09c"] ;
391 -> 401 ;
402 [label="hours_studied <= 2.42\ngini = 0.48\nsamples = 35\nvalue = [30, 21]\nclass = pass", fillcolor="#f7d9c4"] ;
401 -> 402 ;
403 [label="hours_studied <= 2.3\ngini = 0.46\nsamples = 32\nvalue = [30, 17]\nclass = pass", fillcolor="#f4c8a9"] ;
402 -> 403 ;
404 [label="gini = 0.47\nsamples = 30\nvalue = [28, 17]\nclass = pass", fillcolor="#f5ceb1"] ;
403 -> 404 ;
405 [label="gini = 0.0\nsamples = 2\nvalue = [2, 0]\nclass = pass", fillcolor="#e58139"] ;
403 -> 405 ;
406 [label="gini = 0.0\nsamples = 3\nvalue = [0, 4]\nclass = fail", fillcolor="#399de5"] ;
402 -> 406 ;
407 [label="age <= 3.04\ngini = 0.12\nsamples = 9\nvalue = [14, 1]\nclass = pass", fillcolor="#e78a47"] ;
401 -> 407 ;
408 [label="gini = 0.0\nsamples = 6\nvalue = [11, 0]\nclass = pass", fillcolor="#e58139"] ;
407 -> 408 ;
409 [label="hours_studied <= 2.51\ngini = 0.38\nsamples = 3\nvalue = [3, 1]\nclass = pass", fillcolor="#eeab7b"] ;
407 -> 409 ;
410 [label="hours_studied <= 2.4\ngini = 0.5\nsamples = 2\nvalue = [1, 1]\nclass = pass", fillcolor="#ffffff"] ;
409 -> 410 ;
411 [label="gini = 0.0\nsamples = 1\nvalue = [1, 0]\nclass = pass", fillcolor="#e58139"] ;
410 -> 411 ;
412 [label="gini = 0.0\nsamples = 1\nvalue = [0, 1]\nclass = fail", fillcolor="#399de5"] ;
410 -> 412 ;
413 [label="gini = 0.0\nsamples = 1\nvalue = [2, 0]\nclass = pass", fillcolor="#e58139"] ;
409 -> 413 ;
414 [label="age <= 3.09\ngini = 0.29\nsamples = 35\nvalue = [48, 10]\nclass = pass", fillcolor="#ea9b62"] ;
368 -> 414 ;
415 [label="gini = 0.0\nsamples = 8\nvalue = [18, 0]\nclass = pass", fillcolor="#e58139"] ;
414 -> 415 ;
416 [label="age <= 3.09\ngini = 0.38\nsamples = 27\nvalue = [30, 10]\nclass = pass", fillcolor="#eeab7b"] ;
414 -> 416 ;
417 [label="hours_studied <= 2.45\ngini = 0.5\nsamples = 9\nvalue = [5, 6]\nclass = fail", fillcolor="#deeffb"] ;
416 -> 417 ;
418 [label="hours_studied <= 2.03\ngini = 0.47\nsamples = 7\nvalue = [5, 3]\nclass = pass", fillcolor="#f5cdb0"] ;
417 -> 418 ;
419 [label="gini = 0.0\nsamples = 1\nvalue = [0, 2]\nclass = fail", fillcolor="#399de5"] ;
418 -> 419 ;
420 [label="hours_studied <= 2.15\ngini = 0.28\nsamples = 6\nvalue = [5, 1]\nclass = pass", fillcolor="#ea9a61"] ;
418 -> 420 ;
421 [label="gini = 0.0\nsamples = 3\nvalue = [3, 0]\nclass = pass", fillcolor="#e58139"] ;
420 -> 421 ;
422 [label="hours_studied <= 2.28\ngini = 0.44\nsamples = 3\nvalue = [2, 1]\nclass = pass", fillcolor="#f2c09c"] ;
420 -> 422 ;
423 [label="gini = 0.0\nsamples = 1\nvalue = [0, 1]\nclass = fail", fillcolor="#399de5"] ;
422 -> 423 ;
424 [label="gini = 0.0\nsamples = 2\nvalue = [2, 0]\nclass = pass", fillcolor="#e58139"] ;
422 -> 424 ;
425 [label="gini = 0.0\nsamples = 2\nvalue = [0, 3]\nclass = fail", fillcolor="#399de5"] ;
417 -> 425 ;
426 [label="hours_studied <= 2.16\ngini = 0.24\nsamples = 18\nvalue = [25, 4]\nclass = pass", fillcolor="#e99559"] ;
416 -> 426 ;
427 [label="gini = 0.0\nsamples = 11\nvalue = [18, 0]\nclass = pass", fillcolor="#e58139"] ;
426 -> 427 ;
428 [label="age <= 3.12\ngini = 0.46\nsamples = 7\nvalue = [7, 4]\nclass = pass", fillcolor="#f4c9aa"] ;
426 -> 428 ;
429 [label="gini = 0.0\nsamples = 3\nvalue = [5, 0]\nclass = pass", fillcolor="#e58139"] ;
428 -> 429 ;
430 [label="hours_studied <= 2.52\ngini = 0.44\nsamples = 4\nvalue = [2, 4]\nclass = fail", fillcolor="#9ccef2"] ;
428 -> 430 ;
431 [label="gini = 0.0\nsamples = 2\nvalue = [0, 4]\nclass = fail", fillcolor="#399de5"] ;
430 -> 431 ;
432 [label="gini = 0.0\nsamples = 2\nvalue = [2, 0]\nclass = pass", fillcolor="#e58139"] ;
430 -> 432 ;
433 [label="age <= 3.28\ngini = 0.49\nsamples = 16\nvalue = [11, 14]\nclass = fail", fillcolor="#d5eaf9"] ;
367 -> 433 ;
434 [label="hours_studied <= 2.01\ngini = 0.29\nsamples = 11\nvalue = [3, 14]\nclass = fail", fillcolor="#63b2eb"] ;
433 -> 434 ;
435 [label="gini = 0.0\nsamples = 1\nvalue = [1, 0]\nclass = pass", fillcolor="#e58139"] ;
434 -> 435 ;
436 [label="age <= 3.24\ngini = 0.22\nsamples = 10\nvalue = [2, 14]\nclass = fail", fillcolor="#55abe9"] ;
434 -> 436 ;
437 [label="hours_studied <= 2.25\ngini = 0.38\nsamples = 5\nvalue = [2, 6]\nclass = fail", fillcolor="#7bbeee"] ;
436 -> 437 ;
438 [label="hours_studied <= 2.12\ngini = 0.5\nsamples = 2\nvalue = [2, 2]\nclass = pass", fillcolor="#ffffff"] ;
437 -> 438 ;
439 [label="gini = 0.0\nsamples = 1\nvalue = [0, 2]\nclass = fail", fillcolor="#399de5"] ;
438 -> 439 ;
440 [label="gini = 0.0\nsamples = 1\nvalue = [2, 0]\nclass = pass", fillcolor="#e58139"] ;
438 -> 440 ;
441 [label="gini = 0.0\nsamples = 3\nvalue = [0, 4]\nclass = fail", fillcolor="#399de5"] ;
437 -> 441 ;
442 [label="gini = 0.0\nsamples = 5\nvalue = [0, 8]\nclass = fail", fillcolor="#399de5"] ;
436 -> 442 ;
443 [label="gini = 0.0\nsamples = 5\nvalue = [8, 0]\nclass = pass", fillcolor="#e58139"] ;
433 -> 443 ;
444 [label="age <= 3.3\ngini = 0.41\nsamples = 191\nvalue = [89, 222]\nclass = fail", fillcolor="#88c4ef"] ;
4 -> 444 ;
445 [label="age <= 2.95\ngini = 0.38\nsamples = 185\nvalue = [76, 222]\nclass = fail", fillcolor="#7dbfee"] ;
444 -> 445 ;
446 [label="age <= 2.91\ngini = 0.17\nsamples = 45\nvalue = [7, 66]\nclass = fail", fillcolor="#4ea7e8"] ;
445 -> 446 ;
447 [label="hours_studied <= 1.97\ngini = 0.12\nsamples = 27\nvalue = [3, 42]\nclass = fail", fillcolor="#47a4e7"] ;
446 -> 447 ;
448 [label="gini = 0.0\nsamples = 24\nvalue = [0, 39]\nclass = fail", fillcolor="#399de5"] ;
447 -> 448 ;
449 [label="hours_studied <= 2.1\ngini = 0.5\nsamples = 3\nvalue = [3, 3]\nclass = pass", fillcolor="#ffffff"] ;
447 -> 449 ;
450 [label="gini = 0.0\nsamples = 1\nvalue = [3, 0]\nclass = pass", fillcolor="#e58139"] ;
449 -> 450 ;
451 [label="gini = 0.0\nsamples = 2\nvalue = [0, 3]\nclass = fail", fillcolor="#399de5"] ;
449 -> 451 ;
452 [label="age <= 2.94\ngini = 0.24\nsamples = 18\nvalue = [4, 24]\nclass = fail", fillcolor="#5aade9"] ;
446 -> 452 ;
453 [label="gini = 0.0\nsamples = 1\nvalue = [2, 0]\nclass = pass", fillcolor="#e58139"] ;
452 -> 453 ;
454 [label="hours_studied <= 1.75\ngini = 0.14\nsamples = 17\nvalue = [2, 24]\nclass = fail", fillcolor="#49a5e7"] ;
452 -> 454 ;
455 [label="hours_studied <= 1.11\ngini = 0.09\nsamples = 14\nvalue = [1, 21]\nclass = fail", fillcolor="#42a2e6"] ;
454 -> 455 ;
456 [label="hours_studied <= 1.03\ngini = 0.15\nsamples = 10\nvalue = [1, 11]\nclass = fail", fillcolor="#4ba6e7"] ;
455 -> 456 ;
457 [label="gini = 0.0\nsamples = 4\nvalue = [0, 4]\nclass = fail", fillcolor="#399de5"] ;
456 -> 457 ;
458 [label="gini = 0.22\nsamples = 6\nvalue = [1, 7]\nclass = fail", fillcolor="#55abe9"] ;
456 -> 458 ;
459 [label="gini = 0.0\nsamples = 4\nvalue = [0, 10]\nclass = fail", fillcolor="#399de5"] ;
455 -> 459 ;
460 [label="hours_studied <= 1.95\ngini = 0.38\nsamples = 3\nvalue = [1, 3]\nclass = fail", fillcolor="#7bbeee"] ;
454 -> 460 ;
461 [label="gini = 0.0\nsamples = 1\nvalue = [1, 0]\nclass = pass", fillcolor="#e58139"] ;
460 -> 461 ;
462 [label="gini = 0.0\nsamples = 2\nvalue = [0, 3]\nclass = fail", fillcolor="#399de5"] ;
460 -> 462 ;
463 [label="hours_studied <= 1.99\ngini = 0.43\nsamples = 140\nvalue = [69, 156]\nclass = fail", fillcolor="#91c8f0"] ;
445 -> 463 ;
464 [label="age <= 3.0\ngini = 0.44\nsamples = 131\nvalue = [69, 141]\nclass = fail", fillcolor="#9acdf2"] ;
463 -> 464 ;
465 [label="gini = 0.0\nsamples = 6\nvalue = [8, 0]\nclass = pass", fillcolor="#e58139"] ;
464 -> 465 ;
466 [label="age <= 3.0\ngini = 0.42\nsamples = 125\nvalue = [61, 141]\nclass = fail", fillcolor="#8fc7f0"] ;
464 -> 466 ;
467 [label="hours_studied <= 1.59\ngini = 0.08\nsamples = 14\nvalue = [1, 23]\nclass = fail", fillcolor="#42a1e6"] ;
466 -> 467 ;
468 [label="gini = 0.0\nsamples = 10\nvalue = [0, 14]\nclass = fail", fillcolor="#399de5"] ;
467 -> 468 ;
469 [label="hours_studied <= 1.67\ngini = 0.18\nsamples = 4\nvalue = [1, 9]\nclass = fail", fillcolor="#4fa8e8"] ;
467 -> 469 ;
470 [label="gini = 0.0\nsamples = 1\nvalue = [1, 0]\nclass = pass", fillcolor="#e58139"] ;
469 -> 470 ;
471 [label="gini = 0.0\nsamples = 3\nvalue = [0, 9]\nclass = fail", fillcolor="#399de5"] ;
469 -> 471 ;
472 [label="hours_studied <= 1.5\ngini = 0.45\nsamples = 111\nvalue = [60, 118]\nclass = fail", fillcolor="#9ecff2"] ;
466 -> 472 ;
473 [label="age <= 3.04\ngini = 0.41\nsamples = 74\nvalue = [35, 85]\nclass = fail", fillcolor="#8bc5f0"] ;
472 -> 473 ;
474 [label="gini = 0.0\nsamples = 4\nvalue = [9, 0]\nclass = pass", fillcolor="#e58139"] ;
473 -> 474 ;
475 [label="age <= 3.13\ngini = 0.36\nsamples = 70\nvalue = [26, 85]\nclass = fail", fillcolor="#76bbed"] ;
473 -> 475 ;
476 [label="age <= 3.1\ngini = 0.45\nsamples = 27\nvalue = [15, 29]\nclass = fail", fillcolor="#9fd0f2"] ;
475 -> 476 ;
477 [label="age <= 3.08\ngini = 0.28\nsamples = 22\nvalue = [6, 29]\nclass = fail", fillcolor="#62b1ea"] ;
476 -> 477 ;
478 [label="hours_studied <= 1.33\ngini = 0.36\nsamples = 16\nvalue = [6, 19]\nclass = fail", fillcolor="#78bced"] ;
477 -> 478 ;
479 [label="hours_studied <= 0.34\ngini = 0.24\nsamples = 13\nvalue = [3, 18]\nclass = fail", fillcolor="#5aade9"] ;
478 -> 479 ;
480 [label="age <= 3.05\ngini = 0.44\nsamples = 2\nvalue = [1, 2]\nclass = fail", fillcolor="#9ccef2"] ;
479 -> 480 ;
481 [label="gini = 0.0\nsamples = 1\nvalue = [0, 2]\nclass = fail", fillcolor="#399de5"] ;
480 -> 481 ;
482 [label="gini = 0.0\nsamples = 1\nvalue = [1, 0]\nclass = pass", fillcolor="#e58139"] ;
480 -> 482 ;
483 [label="hours_studied <= 1.28\ngini = 0.2\nsamples = 11\nvalue = [2, 16]\nclass = fail", fillcolor="#52a9e8"] ;
479 -> 483 ;
484 [label="gini = 0.0\nsamples = 2\nvalue = [0, 4]\nclass = fail", fillcolor="#399de5"] ;
483 -> 484 ;
485 [label="hours_studied <= 1.32\ngini = 0.24\nsamples = 9\nvalue = [2, 12]\nclass = fail", fillcolor="#5aade9"] ;
483 -> 485 ;
486 [label="gini = 0.28\nsamples = 8\nvalue = [2, 10]\nclass = fail", fillcolor="#61b1ea"] ;
485 -> 486 ;
487 [label="gini = 0.0\nsamples = 1\nvalue = [0, 2]\nclass = fail", fillcolor="#399de5"] ;
485 -> 487 ;
488 [label="age <= 3.06\ngini = 0.38\nsamples = 3\nvalue = [3, 1]\nclass = pass", fillcolor="#eeab7b"] ;
478 -> 488 ;
489 [label="gini = 0.0\nsamples = 1\nvalue = [0, 1]\nclass = fail", fillcolor="#399de5"] ;
488 -> 489 ;
490 [label="gini = 0.0\nsamples = 2\nvalue = [3, 0]\nclass = pass", fillcolor="#e58139"] ;
488 -> 490 ;
491 [label="gini = 0.0\nsamples = 6\nvalue = [0, 10]\nclass = fail", fillcolor="#399de5"] ;
477 -> 491 ;
492 [label="gini = 0.0\nsamples = 5\nvalue = [9, 0]\nclass = pass", fillcolor="#e58139"] ;
476 -> 492 ;
493 [label="age <= 3.24\ngini = 0.27\nsamples = 43\nvalue = [11, 56]\nclass = fail", fillcolor="#60b0ea"] ;
475 -> 493 ;
494 [label="hours_studied <= 0.25\ngini = 0.12\nsamples = 29\nvalue = [3, 42]\nclass = fail", fillcolor="#47a4e7"] ;
493 -> 494 ;
495 [label="hours_studied <= 0.02\ngini = 0.48\nsamples = 3\nvalue = [2, 3]\nclass = fail", fillcolor="#bddef6"] ;
494 -> 495 ;
496 [label="gini = 0.0\nsamples = 2\nvalue = [0, 3]\nclass = fail", fillcolor="#399de5"] ;
495 -> 496 ;
497 [label="gini = 0.0\nsamples = 1\nvalue = [2, 0]\nclass = pass", fillcolor="#e58139"] ;
495 -> 497 ;
498 [label="hours_studied <= 1.42\ngini = 0.05\nsamples = 26\nvalue = [1, 39]\nclass = fail", fillcolor="#3ea0e6"] ;
494 -> 498 ;
499 [label="gini = 0.0\nsamples = 18\nvalue = [0, 30]\nclass = fail", fillcolor="#399de5"] ;
498 -> 499 ;
500 [label="hours_studied <= 1.44\ngini = 0.18\nsamples = 8\nvalue = [1, 9]\nclass = fail", fillcolor="#4fa8e8"] ;
498 -> 500 ;
501 [label="gini = 0.0\nsamples = 1\nvalue = [1, 0]\nclass = pass", fillcolor="#e58139"] ;
500 -> 501 ;
502 [label="gini = 0.0\nsamples = 7\nvalue = [0, 9]\nclass = fail", fillcolor="#399de5"] ;
500 -> 502 ;
503 [label="age <= 3.29\ngini = 0.46\nsamples = 14\nvalue = [8, 14]\nclass = fail", fillcolor="#aad5f4"] ;
493 -> 503 ;
504 [label="age <= 3.26\ngini = 0.35\nsamples = 4\nvalue = [7, 2]\nclass = pass", fillcolor="#eca572"] ;
503 -> 504 ;
505 [label="hours_studied <= 1.23\ngini = 0.44\nsamples = 2\nvalue = [1, 2]\nclass = fail", fillcolor="#9ccef2"] ;
504 -> 505 ;
506 [label="gini = 0.0\nsamples = 1\nvalue = [1, 0]\nclass = pass", fillcolor="#e58139"] ;
505 -> 506 ;
507 [label="gini = 0.0\nsamples = 1\nvalue = [0, 2]\nclass = fail", fillcolor="#399de5"] ;
505 -> 507 ;
508 [label="gini = 0.0\nsamples = 2\nvalue = [6, 0]\nclass = pass", fillcolor="#e58139"] ;
504 -> 508 ;
509 [label="hours_studied <= 1.41\ngini = 0.14\nsamples = 10\nvalue = [1, 12]\nclass = fail", fillcolor="#49a5e7"] ;
503 -> 509 ;
510 [label="hours_studied <= 1.32\ngini = 0.22\nsamples = 8\nvalue = [1, 7]\nclass = fail", fillcolor="#55abe9"] ;
509 -> 510 ;
511 [label="gini = 0.0\nsamples = 3\nvalue = [0, 3]\nclass = fail", fillcolor="#399de5"] ;
510 -> 511 ;
512 [label="gini = 0.32\nsamples = 5\nvalue = [1, 4]\nclass = fail", fillcolor="#6ab6ec"] ;
510 -> 512 ;
513 [label="gini = 0.0\nsamples = 2\nvalue = [0, 5]\nclass = fail", fillcolor="#399de5"] ;
509 -> 513 ;
514 [label="age <= 3.14\ngini = 0.49\nsamples = 37\nvalue = [25, 33]\nclass = fail", fillcolor="#cfe7f9"] ;
472 -> 514 ;
515 [label="hours_studied <= 1.6\ngini = 0.43\nsamples = 21\nvalue = [11, 24]\nclass = fail", fillcolor="#94caf1"] ;
514 -> 515 ;
516 [label="hours_studied <= 1.53\ngini = 0.28\nsamples = 3\nvalue = [5, 1]\nclass = pass", fillcolor="#ea9a61"] ;
515 -> 516 ;
517 [label="gini = 0.0\nsamples = 1\nvalue = [3, 0]\nclass = pass", fillcolor="#e58139"] ;
516 -> 517 ;
518 [label="age <= 3.13\ngini = 0.44\nsamples = 2\nvalue = [2, 1]\nclass = pass", fillcolor="#f2c09c"] ;
516 -> 518 ;
519 [label="gini = 0.0\nsamples = 1\nvalue = [2, 0]\nclass = pass", fillcolor="#e58139"] ;
518 -> 519 ;
520 [label="gini = 0.0\nsamples = 1\nvalue = [0, 1]\nclass = fail", fillcolor="#399de5"] ;
518 -> 520 ;
521 [label="hours_studied <= 1.77\ngini = 0.33\nsamples = 18\nvalue = [6, 23]\nclass = fail", fillcolor="#6db7ec"] ;
515 -> 521 ;
522 [label="age <= 3.11\ngini = 0.09\nsamples = 13\nvalue = [1, 21]\nclass = fail", fillcolor="#42a2e6"] ;
521 -> 522 ;
523 [label="gini = 0.0\nsamples = 10\nvalue = [0, 18]\nclass = fail", fillcolor="#399de5"] ;
522 -> 523 ;
524 [label="hours_studied <= 1.62\ngini = 0.38\nsamples = 3\nvalue = [1, 3]\nclass = fail", fillcolor="#7bbeee"] ;
522 -> 524 ;
525 [label="gini = 0.0\nsamples = 1\nvalue = [0, 2]\nclass = fail", fillcolor="#399de5"] ;
524 -> 525 ;
526 [label="hours_studied <= 1.69\ngini = 0.5\nsamples = 2\nvalue = [1, 1]\nclass = pass", fillcolor="#ffffff"] ;
524 -> 526 ;
527 [label="gini = 0.0\nsamples = 1\nvalue = [1, 0]\nclass = pass", fillcolor="#e58139"] ;
526 -> 527 ;
528 [label="gini = 0.0\nsamples = 1\nvalue = [0, 1]\nclass = fail", fillcolor="#399de5"] ;
526 -> 528 ;
529 [label="age <= 3.09\ngini = 0.41\nsamples = 5\nvalue = [5, 2]\nclass = pass", fillcolor="#efb388"] ;
521 -> 529 ;
530 [label="gini = 0.0\nsamples = 2\nvalue = [3, 0]\nclass = pass", fillcolor="#e58139"] ;
529 -> 530 ;
531 [label="hours_studied <= 1.81\ngini = 0.5\nsamples = 3\nvalue = [2, 2]\nclass = pass", fillcolor="#ffffff"] ;
529 -> 531 ;
532 [label="gini = 0.0\nsamples = 1\nvalue = [2, 0]\nclass = pass", fillcolor="#e58139"] ;
531 -> 532 ;
533 [label="gini = 0.0\nsamples = 2\nvalue = [0, 2]\nclass = fail", fillcolor="#399de5"] ;
531 -> 533 ;
534 [label="hours_studied <= 1.77\ngini = 0.48\nsamples = 16\nvalue = [14, 9]\nclass = pass", fillcolor="#f6d2b8"] ;
514 -> 534 ;
535 [label="age <= 3.29\ngini = 0.39\nsamples = 13\nvalue = [14, 5]\nclass = pass", fillcolor="#eeae80"] ;
534 -> 535 ;
536 [label="hours_studied <= 1.61\ngini = 0.13\nsamples = 9\nvalue = [13, 1]\nclass = pass", fillcolor="#e78b48"] ;
535 -> 536 ;
537 [label="hours_studied <= 1.6\ngini = 0.44\nsamples = 2\nvalue = [2, 1]\nclass = pass", fillcolor="#f2c09c"] ;
536 -> 537 ;
538 [label="gini = 0.0\nsamples = 1\nvalue = [2, 0]\nclass = pass", fillcolor="#e58139"] ;
537 -> 538 ;
539 [label="gini = 0.0\nsamples = 1\nvalue = [0, 1]\nclass = fail", fillcolor="#399de5"] ;
537 -> 539 ;
540 [label="gini = 0.0\nsamples = 7\nvalue = [11, 0]\nclass = pass", fillcolor="#e58139"] ;
536 -> 540 ;
541 [label="hours_studied <= 1.67\ngini = 0.32\nsamples = 4\nvalue = [1, 4]\nclass = fail", fillcolor="#6ab6ec"] ;
535 -> 541 ;
542 [label="gini = 0.0\nsamples = 3\nvalue = [0, 4]\nclass = fail", fillcolor="#399de5"] ;
541 -> 542 ;
543 [label="gini = 0.0\nsamples = 1\nvalue = [1, 0]\nclass = pass", fillcolor="#e58139"] ;
541 -> 543 ;
544 [label="gini = 0.0\nsamples = 3\nvalue = [0, 4]\nclass = fail", fillcolor="#399de5"] ;
534 -> 544 ;
545 [label="gini = 0.0\nsamples = 9\nvalue = [0, 15]\nclass = fail", fillcolor="#399de5"] ;
463 -> 545 ;
546 [label="gini = 0.0\nsamples = 6\nvalue = [13, 0]\nclass = pass", fillcolor="#e58139"] ;
444 -> 546 ;
547 [label="dojo_class <= 0.5\ngini = 0.5\nsamples = 2365\nvalue = [1801, 2007]\nclass = fail", fillcolor="#ebf5fc"] ;
1 -> 547 ;
548 [label="age <= 3.3\ngini = 0.5\nsamples = 1726\nvalue = [1455, 1348]\nclass = pass", fillcolor="#fdf6f0"] ;
547 -> 548 ;
549 [label="hours_studied <= 0.48\ngini = 0.5\nsamples = 1704\nvalue = [1427, 1348]\nclass = pass", fillcolor="#fef8f4"] ;
548 -> 549 ;
550 [label="hours_studied <= -0.6\ngini = 0.45\nsamples = 139\nvalue = [152, 80]\nclass = pass", fillcolor="#f3c3a1"] ;
549 -> 550 ;
551 [label="hours_studied <= -0.85\ngini = 0.33\nsamples = 12\nvalue = [4, 15]\nclass = fail", fillcolor="#6eb7ec"] ;
550 -> 551 ;
552 [label="hours_studied <= -1.19\ngini = 0.17\nsamples = 6\nvalue = [1, 10]\nclass = fail", fillcolor="#4da7e8"] ;
551 -> 552 ;
553 [label="hours_studied <= -1.27\ngini = 0.32\nsamples = 3\nvalue = [1, 4]\nclass = fail", fillcolor="#6ab6ec"] ;
552 -> 553 ;
554 [label="gini = 0.0\nsamples = 2\nvalue = [0, 4]\nclass = fail", fillcolor="#399de5"] ;
553 -> 554 ;
555 [label="gini = 0.0\nsamples = 1\nvalue = [1, 0]\nclass = pass", fillcolor="#e58139"] ;
553 -> 555 ;
556 [label="gini = 0.0\nsamples = 3\nvalue = [0, 6]\nclass = fail", fillcolor="#399de5"] ;
552 -> 556 ;
557 [label="hours_studied <= -0.7\ngini = 0.47\nsamples = 6\nvalue = [3, 5]\nclass = fail", fillcolor="#b0d8f5"] ;
551 -> 557 ;
558 [label="age <= 3.11\ngini = 0.38\nsamples = 4\nvalue = [3, 1]\nclass = pass", fillcolor="#eeab7b"] ;
557 -> 558 ;
559 [label="age <= 2.99\ngini = 0.5\nsamples = 2\nvalue = [1, 1]\nclass = pass", fillcolor="#ffffff"] ;
558 -> 559 ;
560 [label="gini = 0.0\nsamples = 1\nvalue = [1, 0]\nclass = pass", fillcolor="#e58139"] ;
559 -> 560 ;
561 [label="gini = 0.0\nsamples = 1\nvalue = [0, 1]\nclass = fail", fillcolor="#399de5"] ;
559 -> 561 ;
562 [label="gini = 0.0\nsamples = 2\nvalue = [2, 0]\nclass = pass", fillcolor="#e58139"] ;
558 -> 562 ;
563 [label="gini = 0.0\nsamples = 2\nvalue = [0, 4]\nclass = fail", fillcolor="#399de5"] ;
557 -> 563 ;
564 [label="hours_studied <= -0.28\ngini = 0.42\nsamples = 127\nvalue = [148, 65]\nclass = pass", fillcolor="#f0b890"] ;
550 -> 564 ;
565 [label="age <= 2.99\ngini = 0.12\nsamples = 27\nvalue = [42, 3]\nclass = pass", fillcolor="#e78a47"] ;
564 -> 565 ;
566 [label="gini = 0.0\nsamples = 8\nvalue = [16, 0]\nclass = pass", fillcolor="#e58139"] ;
565 -> 566 ;
567 [label="age <= 3.01\ngini = 0.19\nsamples = 19\nvalue = [26, 3]\nclass = pass", fillcolor="#e89050"] ;
565 -> 567 ;
568 [label="gini = 0.0\nsamples = 1\nvalue = [0, 1]\nclass = fail", fillcolor="#399de5"] ;
567 -> 568 ;
569 [label="age <= 3.19\ngini = 0.13\nsamples = 18\nvalue = [26, 2]\nclass = pass", fillcolor="#e78b48"] ;
567 -> 569 ;
570 [label="hours_studied <= -0.43\ngini = 0.23\nsamples = 9\nvalue = [13, 2]\nclass = pass", fillcolor="#e99457"] ;
569 -> 570 ;
571 [label="hours_studied <= -0.51\ngini = 0.14\nsamples = 7\nvalue = [12, 1]\nclass = pass", fillcolor="#e78c49"] ;
570 -> 571 ;
572 [label="hours_studied <= -0.54\ngini = 0.28\nsamples = 3\nvalue = [5, 1]\nclass = pass", fillcolor="#ea9a61"] ;
571 -> 572 ;
573 [label="gini = 0.0\nsamples = 2\nvalue = [5, 0]\nclass = pass", fillcolor="#e58139"] ;
572 -> 573 ;
574 [label="gini = 0.0\nsamples = 1\nvalue = [0, 1]\nclass = fail", fillcolor="#399de5"] ;
572 -> 574 ;
575 [label="gini = 0.0\nsamples = 4\nvalue = [7, 0]\nclass = pass", fillcolor="#e58139"] ;
571 -> 575 ;
576 [label="hours_studied <= -0.36\ngini = 0.5\nsamples = 2\nvalue = [1, 1]\nclass = pass", fillcolor="#ffffff"] ;
570 -> 576 ;
577 [label="gini = 0.0\nsamples = 1\nvalue = [0, 1]\nclass = fail", fillcolor="#399de5"] ;
576 -> 577 ;
578 [label="gini = 0.0\nsamples = 1\nvalue = [1, 0]\nclass = pass", fillcolor="#e58139"] ;
576 -> 578 ;
579 [label="gini = 0.0\nsamples = 9\nvalue = [13, 0]\nclass = pass", fillcolor="#e58139"] ;
569 -> 579 ;
580 [label="hours_studied <= 0.41\ngini = 0.47\nsamples = 100\nvalue = [106, 62]\nclass = pass", fillcolor="#f4cbad"] ;
564 -> 580 ;
581 [label="hours_studied <= 0.37\ngini = 0.48\nsamples = 91\nvalue = [92, 60]\nclass = pass", fillcolor="#f6d3ba"] ;
580 -> 581 ;
582 [label="age <= 3.04\ngini = 0.46\nsamples = 85\nvalue = [91, 52]\nclass = pass", fillcolor="#f4c9aa"] ;
581 -> 582 ;
583 [label="hours_studied <= 0.18\ngini = 0.4\nsamples = 52\nvalue = [65, 25]\nclass = pass", fillcolor="#efb185"] ;
582 -> 583 ;
584 [label="age <= 2.95\ngini = 0.28\nsamples = 33\nvalue = [44, 9]\nclass = pass", fillcolor="#ea9b61"] ;
583 -> 584 ;
585 [label="age <= 2.94\ngini = 0.48\nsamples = 15\nvalue = [14, 9]\nclass = pass", fillcolor="#f6d2b8"] ;
584 -> 585 ;
586 [label="age <= 2.89\ngini = 0.3\nsamples = 11\nvalue = [13, 3]\nclass = pass", fillcolor="#eb9e67"] ;
585 -> 586 ;
587 [label="hours_studied <= -0.26\ngini = 0.38\nsamples = 8\nvalue = [9, 3]\nclass = pass", fillcolor="#eeab7b"] ;
586 -> 587 ;
588 [label="gini = 0.0\nsamples = 1\nvalue = [0, 1]\nclass = fail", fillcolor="#399de5"] ;
587 -> 588 ;
589 [label="hours_studied <= 0.03\ngini = 0.3\nsamples = 7\nvalue = [9, 2]\nclass = pass", fillcolor="#eb9d65"] ;
587 -> 589 ;
590 [label="gini = 0.0\nsamples = 4\nvalue = [6, 0]\nclass = pass", fillcolor="#e58139"] ;
589 -> 590 ;
591 [label="hours_studied <= 0.15\ngini = 0.48\nsamples = 3\nvalue = [3, 2]\nclass = pass", fillcolor="#f6d5bd"] ;
589 -> 591 ;
592 [label="gini = 0.0\nsamples = 2\nvalue = [0, 2]\nclass = fail", fillcolor="#399de5"] ;
591 -> 592 ;
593 [label="gini = 0.0\nsamples = 1\nvalue = [3, 0]\nclass = pass", fillcolor="#e58139"] ;
591 -> 593 ;
594 [label="gini = 0.0\nsamples = 3\nvalue = [4, 0]\nclass = pass", fillcolor="#e58139"] ;
586 -> 594 ;
595 [label="hours_studied <= 0.03\ngini = 0.24\nsamples = 4\nvalue = [1, 6]\nclass = fail", fillcolor="#5aade9"] ;
585 -> 595 ;
596 [label="hours_studied <= -0.08\ngini = 0.5\nsamples = 2\nvalue = [1, 1]\nclass = pass", fillcolor="#ffffff"] ;
595 -> 596 ;
597 [label="gini = 0.0\nsamples = 1\nvalue = [0, 1]\nclass = fail", fillcolor="#399de5"] ;
596 -> 597 ;
598 [label="gini = 0.0\nsamples = 1\nvalue = [1, 0]\nclass = pass", fillcolor="#e58139"] ;
596 -> 598 ;
599 [label="gini = 0.0\nsamples = 2\nvalue = [0, 5]\nclass = fail", fillcolor="#399de5"] ;
595 -> 599 ;
600 [label="gini = 0.0\nsamples = 18\nvalue = [30, 0]\nclass = pass", fillcolor="#e58139"] ;
584 -> 600 ;
601 [label="hours_studied <= 0.25\ngini = 0.49\nsamples = 19\nvalue = [21, 16]\nclass = pass", fillcolor="#f9e1d0"] ;
583 -> 601 ;
602 [label="gini = 0.0\nsamples = 5\nvalue = [0, 11]\nclass = fail", fillcolor="#399de5"] ;
601 -> 602 ;
603 [label="age <= 2.99\ngini = 0.31\nsamples = 14\nvalue = [21, 5]\nclass = pass", fillcolor="#eb9f68"] ;
601 -> 603 ;
604 [label="hours_studied <= 0.33\ngini = 0.27\nsamples = 13\nvalue = [21, 4]\nclass = pass", fillcolor="#ea995f"] ;
603 -> 604 ;
605 [label="gini = 0.0\nsamples = 7\nvalue = [16, 0]\nclass = pass", fillcolor="#e58139"] ;
604 -> 605 ;
606 [label="hours_studied <= 0.33\ngini = 0.49\nsamples = 6\nvalue = [5, 4]\nclass = pass", fillcolor="#fae6d7"] ;
604 -> 606 ;
607 [label="gini = 0.0\nsamples = 1\nvalue = [0, 4]\nclass = fail", fillcolor="#399de5"] ;
606 -> 607 ;
608 [label="gini = 0.0\nsamples = 5\nvalue = [5, 0]\nclass = pass", fillcolor="#e58139"] ;
606 -> 608 ;
609 [label="gini = 0.0\nsamples = 1\nvalue = [0, 1]\nclass = fail", fillcolor="#399de5"] ;
603 -> 609 ;
610 [label="hours_studied <= 0.13\ngini = 0.5\nsamples = 33\nvalue = [26, 27]\nclass = fail", fillcolor="#f8fbfe"] ;
582 -> 610 ;
611 [label="hours_studied <= -0.23\ngini = 0.12\nsamples = 11\nvalue = [1, 14]\nclass = fail", fillcolor="#47a4e7"] ;
610 -> 611 ;
612 [label="gini = 0.0\nsamples = 1\nvalue = [1, 0]\nclass = pass", fillcolor="#e58139"] ;
611 -> 612 ;
613 [label="gini = 0.0\nsamples = 10\nvalue = [0, 14]\nclass = fail", fillcolor="#399de5"] ;
611 -> 613 ;
614 [label="hours_studied <= 0.26\ngini = 0.45\nsamples = 22\nvalue = [25, 13]\nclass = pass", fillcolor="#f3c3a0"] ;
610 -> 614 ;
615 [label="hours_studied <= 0.19\ngini = 0.14\nsamples = 9\nvalue = [12, 1]\nclass = pass", fillcolor="#e78c49"] ;
614 -> 615 ;
616 [label="hours_studied <= 0.16\ngini = 0.32\nsamples = 3\nvalue = [4, 1]\nclass = pass", fillcolor="#eca06a"] ;
615 -> 616 ;
617 [label="gini = 0.0\nsamples = 2\nvalue = [4, 0]\nclass = pass", fillcolor="#e58139"] ;
616 -> 617 ;
618 [label="gini = 0.0\nsamples = 1\nvalue = [0, 1]\nclass = fail", fillcolor="#399de5"] ;
616 -> 618 ;
619 [label="gini = 0.0\nsamples = 6\nvalue = [8, 0]\nclass = pass", fillcolor="#e58139"] ;
615 -> 619 ;
620 [label="age <= 3.18\ngini = 0.5\nsamples = 13\nvalue = [13, 12]\nclass = pass", fillcolor="#fdf5f0"] ;
614 -> 620 ;
621 [label="hours_studied <= 0.28\ngini = 0.15\nsamples = 6\nvalue = [1, 11]\nclass = fail", fillcolor="#4ba6e7"] ;
620 -> 621 ;
622 [label="gini = 0.0\nsamples = 2\nvalue = [0, 7]\nclass = fail", fillcolor="#399de5"] ;
621 -> 622 ;
623 [label="age <= 3.13\ngini = 0.32\nsamples = 4\nvalue = [1, 4]\nclass = fail", fillcolor="#6ab6ec"] ;
621 -> 623 ;
624 [label="gini = 0.0\nsamples = 2\nvalue = [0, 2]\nclass = fail", fillcolor="#399de5"] ;
623 -> 624 ;
625 [label="hours_studied <= 0.3\ngini = 0.44\nsamples = 2\nvalue = [1, 2]\nclass = fail", fillcolor="#9ccef2"] ;
623 -> 625 ;
626 [label="gini = 0.0\nsamples = 1\nvalue = [1, 0]\nclass = pass", fillcolor="#e58139"] ;
625 -> 626 ;
627 [label="gini = 0.0\nsamples = 1\nvalue = [0, 2]\nclass = fail", fillcolor="#399de5"] ;
625 -> 627 ;
628 [label="hours_studied <= 0.26\ngini = 0.14\nsamples = 7\nvalue = [12, 1]\nclass = pass", fillcolor="#e78c49"] ;
620 -> 628 ;
629 [label="gini = 0.0\nsamples = 1\nvalue = [0, 1]\nclass = fail", fillcolor="#399de5"] ;
628 -> 629 ;
630 [label="gini = 0.0\nsamples = 6\nvalue = [12, 0]\nclass = pass", fillcolor="#e58139"] ;
628 -> 630 ;
631 [label="age <= 2.97\ngini = 0.2\nsamples = 6\nvalue = [1, 8]\nclass = fail", fillcolor="#52a9e8"] ;
581 -> 631 ;
632 [label="hours_studied <= 0.38\ngini = 0.44\nsamples = 2\nvalue = [1, 2]\nclass = fail", fillcolor="#9ccef2"] ;
631 -> 632 ;
633 [label="gini = 0.0\nsamples = 1\nvalue = [1, 0]\nclass = pass", fillcolor="#e58139"] ;
632 -> 633 ;
634 [label="gini = 0.0\nsamples = 1\nvalue = [0, 2]\nclass = fail", fillcolor="#399de5"] ;
632 -> 634 ;
635 [label="gini = 0.0\nsamples = 4\nvalue = [0, 6]\nclass = fail", fillcolor="#399de5"] ;
631 -> 635 ;
636 [label="hours_studied <= 0.44\ngini = 0.22\nsamples = 9\nvalue = [14, 2]\nclass = pass", fillcolor="#e99355"] ;
580 -> 636 ;
637 [label="gini = 0.0\nsamples = 6\nvalue = [10, 0]\nclass = pass", fillcolor="#e58139"] ;
636 -> 637 ;
638 [label="hours_studied <= 0.45\ngini = 0.44\nsamples = 3\nvalue = [4, 2]\nclass = pass", fillcolor="#f2c09c"] ;
636 -> 638 ;
639 [label="gini = 0.0\nsamples = 1\nvalue = [0, 2]\nclass = fail", fillcolor="#399de5"] ;
638 -> 639 ;
640 [label="gini = 0.0\nsamples = 2\nvalue = [4, 0]\nclass = pass", fillcolor="#e58139"] ;
638 -> 640 ;
641 [label="age <= 2.89\ngini = 0.5\nsamples = 1565\nvalue = [1275, 1268]\nclass = pass", fillcolor="#fffefe"] ;
549 -> 641 ;
642 [label="hours_studied <= 2.08\ngini = 0.47\nsamples = 185\nvalue = [117, 190]\nclass = fail", fillcolor="#b3d9f5"] ;
641 -> 642 ;
643 [label="hours_studied <= 1.97\ngini = 0.5\nsamples = 148\nvalue = [109, 131]\nclass = fail", fillcolor="#deeffb"] ;
642 -> 643 ;
644 [label="hours_studied <= 1.66\ngini = 0.43\nsamples = 78\nvalue = [37, 83]\nclass = fail", fillcolor="#91c9f1"] ;
643 -> 644 ;
645 [label="hours_studied <= 1.62\ngini = 0.48\nsamples = 53\nvalue = [31, 47]\nclass = fail", fillcolor="#bcdef6"] ;
644 -> 645 ;
646 [label="hours_studied <= 1.59\ngini = 0.46\nsamples = 48\nvalue = [26, 46]\nclass = fail", fillcolor="#a9d4f4"] ;
645 -> 646 ;
647 [label="hours_studied <= 1.21\ngini = 0.48\nsamples = 43\nvalue = [26, 40]\nclass = fail", fillcolor="#baddf6"] ;
646 -> 647 ;
648 [label="hours_studied <= 0.6\ngini = 0.36\nsamples = 19\nvalue = [6, 20]\nclass = fail", fillcolor="#74baed"] ;
647 -> 648 ;
649 [label="hours_studied <= 0.59\ngini = 0.49\nsamples = 4\nvalue = [3, 4]\nclass = fail", fillcolor="#cee6f8"] ;
648 -> 649 ;
650 [label="gini = 0.0\nsamples = 3\nvalue = [0, 4]\nclass = fail", fillcolor="#399de5"] ;
649 -> 650 ;
651 [label="gini = 0.0\nsamples = 1\nvalue = [3, 0]\nclass = pass", fillcolor="#e58139"] ;
649 -> 651 ;
652 [label="hours_studied <= 1.12\ngini = 0.27\nsamples = 15\nvalue = [3, 16]\nclass = fail", fillcolor="#5eafea"] ;
648 -> 652 ;
653 [label="hours_studied <= 0.95\ngini = 0.14\nsamples = 10\nvalue = [1, 12]\nclass = fail", fillcolor="#49a5e7"] ;
652 -> 653 ;
654 [label="gini = 0.0\nsamples = 5\nvalue = [0, 6]\nclass = fail", fillcolor="#399de5"] ;
653 -> 654 ;
655 [label="hours_studied <= 1.03\ngini = 0.24\nsamples = 5\nvalue = [1, 6]\nclass = fail", fillcolor="#5aade9"] ;
653 -> 655 ;
656 [label="gini = 0.0\nsamples = 1\nvalue = [1, 0]\nclass = pass", fillcolor="#e58139"] ;
655 -> 656 ;
657 [label="gini = 0.0\nsamples = 4\nvalue = [0, 6]\nclass = fail", fillcolor="#399de5"] ;
655 -> 657 ;
658 [label="hours_studied <= 1.16\ngini = 0.44\nsamples = 5\nvalue = [2, 4]\nclass = fail", fillcolor="#9ccef2"] ;
652 -> 658 ;
659 [label="gini = 0.0\nsamples = 1\nvalue = [1, 0]\nclass = pass", fillcolor="#e58139"] ;
658 -> 659 ;
660 [label="hours_studied <= 1.18\ngini = 0.32\nsamples = 4\nvalue = [1, 4]\nclass = fail", fillcolor="#6ab6ec"] ;
658 -> 660 ;
661 [label="gini = 0.0\nsamples = 1\nvalue = [0, 2]\nclass = fail", fillcolor="#399de5"] ;
660 -> 661 ;
662 [label="hours_studied <= 1.19\ngini = 0.44\nsamples = 3\nvalue = [1, 2]\nclass = fail", fillcolor="#9ccef2"] ;
660 -> 662 ;
663 [label="gini = 0.0\nsamples = 1\nvalue = [1, 0]\nclass = pass", fillcolor="#e58139"] ;
662 -> 663 ;
664 [label="gini = 0.0\nsamples = 2\nvalue = [0, 2]\nclass = fail", fillcolor="#399de5"] ;
662 -> 664 ;
665 [label="hours_studied <= 1.23\ngini = 0.5\nsamples = 24\nvalue = [20, 20]\nclass = pass", fillcolor="#ffffff"] ;
647 -> 665 ;
666 [label="gini = 0.0\nsamples = 1\nvalue = [4, 0]\nclass = pass", fillcolor="#e58139"] ;
665 -> 666 ;
667 [label="hours_studied <= 1.56\ngini = 0.49\nsamples = 23\nvalue = [16, 20]\nclass = fail", fillcolor="#d7ebfa"] ;
665 -> 667 ;
668 [label="hours_studied <= 1.44\ngini = 0.47\nsamples = 20\nvalue = [12, 19]\nclass = fail", fillcolor="#b6dbf5"] ;
667 -> 668 ;
669 [label="hours_studied <= 1.39\ngini = 0.5\nsamples = 14\nvalue = [11, 9]\nclass = pass", fillcolor="#fae8db"] ;
668 -> 669 ;
670 [label="hours_studied <= 1.33\ngini = 0.4\nsamples = 7\nvalue = [3, 8]\nclass = fail", fillcolor="#83c2ef"] ;
669 -> 670 ;
671 [label="hours_studied <= 1.31\ngini = 0.5\nsamples = 4\nvalue = [3, 3]\nclass = pass", fillcolor="#ffffff"] ;
670 -> 671 ;
672 [label="hours_studied <= 1.28\ngini = 0.38\nsamples = 3\nvalue = [1, 3]\nclass = fail", fillcolor="#7bbeee"] ;
671 -> 672 ;
673 [label="hours_studied <= 1.25\ngini = 0.5\nsamples = 2\nvalue = [1, 1]\nclass = pass", fillcolor="#ffffff"] ;
672 -> 673 ;
674 [label="gini = 0.0\nsamples = 1\nvalue = [0, 1]\nclass = fail", fillcolor="#399de5"] ;
673 -> 674 ;
675 [label="gini = 0.0\nsamples = 1\nvalue = [1, 0]\nclass = pass", fillcolor="#e58139"] ;
673 -> 675 ;
676 [label="gini = 0.0\nsamples = 1\nvalue = [0, 2]\nclass = fail", fillcolor="#399de5"] ;
672 -> 676 ;
677 [label="gini = 0.0\nsamples = 1\nvalue = [2, 0]\nclass = pass", fillcolor="#e58139"] ;
671 -> 677 ;
678 [label="gini = 0.0\nsamples = 3\nvalue = [0, 5]\nclass = fail", fillcolor="#399de5"] ;
670 -> 678 ;
679 [label="hours_studied <= 1.42\ngini = 0.2\nsamples = 7\nvalue = [8, 1]\nclass = pass", fillcolor="#e89152"] ;
669 -> 679 ;
680 [label="gini = 0.0\nsamples = 5\nvalue = [7, 0]\nclass = pass", fillcolor="#e58139"] ;
679 -> 680 ;
681 [label="hours_studied <= 1.43\ngini = 0.5\nsamples = 2\nvalue = [1, 1]\nclass = pass", fillcolor="#ffffff"] ;
679 -> 681 ;
682 [label="gini = 0.0\nsamples = 1\nvalue = [0, 1]\nclass = fail", fillcolor="#399de5"] ;
681 -> 682 ;
683 [label="gini = 0.0\nsamples = 1\nvalue = [1, 0]\nclass = pass", fillcolor="#e58139"] ;
681 -> 683 ;
684 [label="hours_studied <= 1.47\ngini = 0.17\nsamples = 6\nvalue = [1, 10]\nclass = fail", fillcolor="#4da7e8"] ;
668 -> 684 ;
685 [label="hours_studied <= 1.44\ngini = 0.38\nsamples = 3\nvalue = [1, 3]\nclass = fail", fillcolor="#7bbeee"] ;
684 -> 685 ;
686 [label="gini = 0.0\nsamples = 2\nvalue = [0, 3]\nclass = fail", fillcolor="#399de5"] ;
685 -> 686 ;
687 [label="gini = 0.0\nsamples = 1\nvalue = [1, 0]\nclass = pass", fillcolor="#e58139"] ;
685 -> 687 ;
688 [label="gini = 0.0\nsamples = 3\nvalue = [0, 7]\nclass = fail", fillcolor="#399de5"] ;
684 -> 688 ;
689 [label="hours_studied <= 1.57\ngini = 0.32\nsamples = 3\nvalue = [4, 1]\nclass = pass", fillcolor="#eca06a"] ;
667 -> 689 ;
690 [label="gini = 0.0\nsamples = 1\nvalue = [2, 0]\nclass = pass", fillcolor="#e58139"] ;
689 -> 690 ;
691 [label="gini = 0.44\nsamples = 2\nvalue = [2, 1]\nclass = pass", fillcolor="#f2c09c"] ;
689 -> 691 ;
692 [label="gini = 0.0\nsamples = 5\nvalue = [0, 6]\nclass = fail", fillcolor="#399de5"] ;
646 -> 692 ;
693 [label="hours_studied <= 1.63\ngini = 0.28\nsamples = 5\nvalue = [5, 1]\nclass = pass", fillcolor="#ea9a61"] ;
645 -> 693 ;
694 [label="gini = 0.0\nsamples = 2\nvalue = [3, 0]\nclass = pass", fillcolor="#e58139"] ;
693 -> 694 ;
695 [label="hours_studied <= 1.64\ngini = 0.44\nsamples = 3\nvalue = [2, 1]\nclass = pass", fillcolor="#f2c09c"] ;
693 -> 695 ;
696 [label="gini = 0.0\nsamples = 1\nvalue = [0, 1]\nclass = fail", fillcolor="#399de5"] ;
695 -> 696 ;
697 [label="gini = 0.0\nsamples = 2\nvalue = [2, 0]\nclass = pass", fillcolor="#e58139"] ;
695 -> 697 ;
698 [label="hours_studied <= 1.78\ngini = 0.24\nsamples = 25\nvalue = [6, 36]\nclass = fail", fillcolor="#5aade9"] ;
644 -> 698 ;
699 [label="gini = 0.0\nsamples = 10\nvalue = [0, 20]\nclass = fail", fillcolor="#399de5"] ;
698 -> 699 ;
700 [label="hours_studied <= 1.84\ngini = 0.4\nsamples = 15\nvalue = [6, 16]\nclass = fail", fillcolor="#83c2ef"] ;
698 -> 700 ;
701 [label="hours_studied <= 1.83\ngini = 0.38\nsamples = 5\nvalue = [6, 2]\nclass = pass", fillcolor="#eeab7b"] ;
700 -> 701 ;
702 [label="hours_studied <= 1.79\ngini = 0.5\nsamples = 4\nvalue = [2, 2]\nclass = pass", fillcolor="#ffffff"] ;
701 -> 702 ;
703 [label="gini = 0.0\nsamples = 1\nvalue = [1, 0]\nclass = pass", fillcolor="#e58139"] ;
702 -> 703 ;
704 [label="hours_studied <= 1.81\ngini = 0.44\nsamples = 3\nvalue = [1, 2]\nclass = fail", fillcolor="#9ccef2"] ;
702 -> 704 ;
705 [label="gini = 0.0\nsamples = 1\nvalue = [0, 1]\nclass = fail", fillcolor="#399de5"] ;
704 -> 705 ;
706 [label="hours_studied <= 1.83\ngini = 0.5\nsamples = 2\nvalue = [1, 1]\nclass = pass", fillcolor="#ffffff"] ;
704 -> 706 ;
707 [label="gini = 0.0\nsamples = 1\nvalue = [1, 0]\nclass = pass", fillcolor="#e58139"] ;
706 -> 707 ;
708 [label="gini = 0.0\nsamples = 1\nvalue = [0, 1]\nclass = fail", fillcolor="#399de5"] ;
706 -> 708 ;
709 [label="gini = 0.0\nsamples = 1\nvalue = [4, 0]\nclass = pass", fillcolor="#e58139"] ;
701 -> 709 ;
710 [label="gini = 0.0\nsamples = 10\nvalue = [0, 14]\nclass = fail", fillcolor="#399de5"] ;
700 -> 710 ;
711 [label="hours_studied <= 2.0\ngini = 0.48\nsamples = 70\nvalue = [72, 48]\nclass = pass", fillcolor="#f6d5bd"] ;
643 -> 711 ;
712 [label="hours_studied <= 1.99\ngini = 0.5\nsamples = 58\nvalue = [54, 46]\nclass = pass", fillcolor="#fbece2"] ;
711 -> 712 ;
713 [label="gini = 0.0\nsamples = 1\nvalue = [5, 0]\nclass = pass", fillcolor="#e58139"] ;
712 -> 713 ;
714 [label="gini = 0.5\nsamples = 57\nvalue = [49, 46]\nclass = pass", fillcolor="#fdf7f3"] ;
712 -> 714 ;
715 [label="hours_studied <= 2.02\ngini = 0.18\nsamples = 12\nvalue = [18, 2]\nclass = pass", fillcolor="#e88f4f"] ;
711 -> 715 ;
716 [label="gini = 0.0\nsamples = 3\nvalue = [7, 0]\nclass = pass", fillcolor="#e58139"] ;
715 -> 716 ;
717 [label="hours_studied <= 2.03\ngini = 0.26\nsamples = 9\nvalue = [11, 2]\nclass = pass", fillcolor="#ea985d"] ;
715 -> 717 ;
718 [label="gini = 0.0\nsamples = 1\nvalue = [0, 1]\nclass = fail", fillcolor="#399de5"] ;
717 -> 718 ;
719 [label="hours_studied <= 2.04\ngini = 0.15\nsamples = 8\nvalue = [11, 1]\nclass = pass", fillcolor="#e78c4b"] ;
717 -> 719 ;
720 [label="gini = 0.0\nsamples = 4\nvalue = [6, 0]\nclass = pass", fillcolor="#e58139"] ;
719 -> 720 ;
721 [label="hours_studied <= 2.04\ngini = 0.28\nsamples = 4\nvalue = [5, 1]\nclass = pass", fillcolor="#ea9a61"] ;
719 -> 721 ;
722 [label="gini = 0.0\nsamples = 1\nvalue = [0, 1]\nclass = fail", fillcolor="#399de5"] ;
721 -> 722 ;
723 [label="gini = 0.0\nsamples = 3\nvalue = [5, 0]\nclass = pass", fillcolor="#e58139"] ;
721 -> 723 ;
724 [label="hours_studied <= 2.33\ngini = 0.21\nsamples = 37\nvalue = [8, 59]\nclass = fail", fillcolor="#54aae9"] ;
642 -> 724 ;
725 [label="hours_studied <= 2.24\ngini = 0.05\nsamples = 26\nvalue = [1, 40]\nclass = fail", fillcolor="#3e9fe6"] ;
724 -> 725 ;
726 [label="gini = 0.0\nsamples = 7\nvalue = [0, 11]\nclass = fail", fillcolor="#399de5"] ;
725 -> 726 ;
727 [label="hours_studied <= 2.26\ngini = 0.06\nsamples = 19\nvalue = [1, 29]\nclass = fail", fillcolor="#40a0e6"] ;
725 -> 727 ;
728 [label="gini = 0.09\nsamples = 14\nvalue = [1, 20]\nclass = fail", fillcolor="#43a2e6"] ;
727 -> 728 ;
729 [label="gini = 0.0\nsamples = 5\nvalue = [0, 9]\nclass = fail", fillcolor="#399de5"] ;
727 -> 729 ;
730 [label="hours_studied <= 2.4\ngini = 0.39\nsamples = 11\nvalue = [7, 19]\nclass = fail", fillcolor="#82c1ef"] ;
724 -> 730 ;
731 [label="gini = 0.0\nsamples = 2\nvalue = [5, 0]\nclass = pass", fillcolor="#e58139"] ;
730 -> 731 ;
732 [label="hours_studied <= 2.68\ngini = 0.17\nsamples = 9\nvalue = [2, 19]\nclass = fail", fillcolor="#4ea7e8"] ;
730 -> 732 ;
733 [label="gini = 0.0\nsamples = 7\nvalue = [0, 18]\nclass = fail", fillcolor="#399de5"] ;
732 -> 733 ;
734 [label="hours_studied <= 2.74\ngini = 0.44\nsamples = 2\nvalue = [2, 1]\nclass = pass", fillcolor="#f2c09c"] ;
732 -> 734 ;
735 [label="gini = 0.0\nsamples = 1\nvalue = [2, 0]\nclass = pass", fillcolor="#e58139"] ;
734 -> 735 ;
736 [label="gini = 0.0\nsamples = 1\nvalue = [0, 1]\nclass = fail", fillcolor="#399de5"] ;
734 -> 736 ;
737 [label="age <= 2.94\ngini = 0.5\nsamples = 1380\nvalue = [1158, 1078]\nclass = pass", fillcolor="#fdf6f1"] ;
641 -> 737 ;
738 [label="gini = 0.0\nsamples = 29\nvalue = [48, 0]\nclass = pass", fillcolor="#e58139"] ;
737 -> 738 ;
739 [label="age <= 3.26\ngini = 0.5\nsamples = 1351\nvalue = [1110, 1078]\nclass = pass", fillcolor="#fefbf9"] ;
737 -> 739 ;
740 [label="age <= 3.22\ngini = 0.5\nsamples = 1193\nvalue = [994, 921]\nclass = pass", fillcolor="#fdf6f0"] ;
739 -> 740 ;
741 [label="hours_studied <= 1.82\ngini = 0.5\nsamples = 1180\nvalue = [976, 921]\nclass = pass", fillcolor="#fef8f4"] ;
740 -> 741 ;
742 [label="hours_studied <= 1.67\ngini = 0.5\nsamples = 825\nvalue = [661, 669]\nclass = fail", fillcolor="#fdfeff"] ;
741 -> 742 ;
743 [label="hours_studied <= 1.41\ngini = 0.5\nsamples = 758\nvalue = [639, 588]\nclass = pass", fillcolor="#fdf5ef"] ;
742 -> 743 ;
744 [label="hours_studied <= 1.33\ngini = 0.5\nsamples = 495\nvalue = [395, 406]\nclass = fail", fillcolor="#fafcfe"] ;
743 -> 744 ;
745 [label="age <= 3.14\ngini = 0.5\nsamples = 392\nvalue = [340, 302]\nclass = pass", fillcolor="#fcf1e9"] ;
744 -> 745 ;
746 [label="hours_studied <= 1.32\ngini = 0.5\nsamples = 317\nvalue = [247, 263]\nclass = fail", fillcolor="#f3f9fd"] ;
745 -> 746 ;
747 [label="hours_studied <= 1.23\ngini = 0.5\nsamples = 312\nvalue = [237, 262]\nclass = fail", fillcolor="#ecf6fd"] ;
746 -> 747 ;
748 [label="age <= 3.04\ngini = 0.5\nsamples = 282\nvalue = [225, 225]\nclass = pass", fillcolor="#ffffff"] ;
747 -> 748 ;
749 [label="age <= 3.0\ngini = 0.49\nsamples = 143\nvalue = [131, 95]\nclass = pass", fillcolor="#f8dcc9"] ;
748 -> 749 ;
750 [label="hours_studied <= 0.67\ngini = 0.49\nsamples = 135\nvalue = [120, 95]\nclass = pass", fillcolor="#fae5d6"] ;
749 -> 750 ;
751 [label="hours_studied <= 0.56\ngini = 0.32\nsamples = 10\nvalue = [3, 12]\nclass = fail", fillcolor="#6ab6ec"] ;
750 -> 751 ;
752 [label="gini = 0.0\nsamples = 4\nvalue = [0, 6]\nclass = fail", fillcolor="#399de5"] ;
751 -> 752 ;
753 [label="age <= 2.95\ngini = 0.44\nsamples = 6\nvalue = [3, 6]\nclass = fail", fillcolor="#9ccef2"] ;
751 -> 753 ;
754 [label="gini = 0.0\nsamples = 3\nvalue = [0, 4]\nclass = fail", fillcolor="#399de5"] ;
753 -> 754 ;
755 [label="hours_studied <= 0.6\ngini = 0.48\nsamples = 3\nvalue = [3, 2]\nclass = pass", fillcolor="#f6d5bd"] ;
753 -> 755 ;
756 [label="gini = 0.0\nsamples = 1\nvalue = [3, 0]\nclass = pass", fillcolor="#e58139"] ;
755 -> 756 ;
757 [label="gini = 0.0\nsamples = 2\nvalue = [0, 2]\nclass = fail", fillcolor="#399de5"] ;
755 -> 757 ;
758 [label="age <= 2.94\ngini = 0.49\nsamples = 125\nvalue = [117, 83]\nclass = pass", fillcolor="#f7dac5"] ;
750 -> 758 ;
759 [label="hours_studied <= 1.02\ngini = 0.5\nsamples = 33\nvalue = [27, 27]\nclass = pass", fillcolor="#ffffff"] ;
758 -> 759 ;
760 [label="hours_studied <= 0.8\ngini = 0.43\nsamples = 16\nvalue = [18, 8]\nclass = pass", fillcolor="#f1b991"] ;
759 -> 760 ;
761 [label="gini = 0.0\nsamples = 1\nvalue = [0, 4]\nclass = fail", fillcolor="#399de5"] ;
760 -> 761 ;
762 [label="hours_studied <= 0.98\ngini = 0.3\nsamples = 15\nvalue = [18, 4]\nclass = pass", fillcolor="#eb9d65"] ;
760 -> 762 ;
763 [label="hours_studied <= 0.85\ngini = 0.22\nsamples = 11\nvalue = [14, 2]\nclass = pass", fillcolor="#e99355"] ;
762 -> 763 ;
764 [label="hours_studied <= 0.81\ngini = 0.44\nsamples = 2\nvalue = [2, 1]\nclass = pass", fillcolor="#f2c09c"] ;
763 -> 764 ;
765 [label="gini = 0.0\nsamples = 1\nvalue = [2, 0]\nclass = pass", fillcolor="#e58139"] ;
764 -> 765 ;
766 [label="gini = 0.0\nsamples = 1\nvalue = [0, 1]\nclass = fail", fillcolor="#399de5"] ;
764 -> 766 ;
767 [label="hours_studied <= 0.91\ngini = 0.14\nsamples = 9\nvalue = [12, 1]\nclass = pass", fillcolor="#e78c49"] ;
763 -> 767 ;
768 [label="gini = 0.0\nsamples = 4\nvalue = [7, 0]\nclass = pass", fillcolor="#e58139"] ;
767 -> 768 ;
769 [label="hours_studied <= 0.93\ngini = 0.28\nsamples = 5\nvalue = [5, 1]\nclass = pass", fillcolor="#ea9a61"] ;
767 -> 769 ;
770 [label="gini = 0.0\nsamples = 1\nvalue = [0, 1]\nclass = fail", fillcolor="#399de5"] ;
769 -> 770 ;
771 [label="gini = 0.0\nsamples = 4\nvalue = [5, 0]\nclass = pass", fillcolor="#e58139"] ;
769 -> 771 ;
772 [label="hours_studied <= 0.99\ngini = 0.44\nsamples = 4\nvalue = [4, 2]\nclass = pass", fillcolor="#f2c09c"] ;
762 -> 772 ;
773 [label="gini = 0.0\nsamples = 1\nvalue = [0, 2]\nclass = fail", fillcolor="#399de5"] ;
772 -> 773 ;
774 [label="gini = 0.0\nsamples = 3\nvalue = [4, 0]\nclass = pass", fillcolor="#e58139"] ;
772 -> 774 ;
775 [label="hours_studied <= 1.2\ngini = 0.44\nsamples = 17\nvalue = [9, 19]\nclass = fail", fillcolor="#97cbf1"] ;
759 -> 775 ;
776 [label="hours_studied <= 1.15\ngini = 0.29\nsamples = 15\nvalue = [4, 19]\nclass = fail", fillcolor="#63b2ea"] ;
775 -> 776 ;
777 [label="gini = 0.0\nsamples = 8\nvalue = [0, 13]\nclass = fail", fillcolor="#399de5"] ;
776 -> 777 ;
778 [label="hours_studied <= 1.18\ngini = 0.48\nsamples = 7\nvalue = [4, 6]\nclass = fail", fillcolor="#bddef6"] ;
776 -> 778 ;
779 [label="gini = 0.0\nsamples = 3\nvalue = [3, 0]\nclass = pass", fillcolor="#e58139"] ;
778 -> 779 ;
780 [label="hours_studied <= 1.18\ngini = 0.24\nsamples = 4\nvalue = [1, 6]\nclass = fail", fillcolor="#5aade9"] ;
778 -> 780 ;
781 [label="gini = 0.0\nsamples = 1\nvalue = [0, 3]\nclass = fail", fillcolor="#399de5"] ;
780 -> 781 ;
782 [label="hours_studied <= 1.19\ngini = 0.38\nsamples = 3\nvalue = [1, 3]\nclass = fail", fillcolor="#7bbeee"] ;
780 -> 782 ;
783 [label="gini = 0.0\nsamples = 1\nvalue = [1, 0]\nclass = pass", fillcolor="#e58139"] ;
782 -> 783 ;
784 [label="gini = 0.0\nsamples = 2\nvalue = [0, 3]\nclass = fail", fillcolor="#399de5"] ;
782 -> 784 ;
785 [label="gini = 0.0\nsamples = 2\nvalue = [5, 0]\nclass = pass", fillcolor="#e58139"] ;
775 -> 785 ;
786 [label="age <= 2.99\ngini = 0.47\nsamples = 92\nvalue = [90, 56]\nclass = pass", fillcolor="#f5cfb4"] ;
758 -> 786 ;
787 [label="gini = 0.0\nsamples = 14\nvalue = [23, 0]\nclass = pass", fillcolor="#e58139"] ;
786 -> 787 ;
788 [label="hours_studied <= 0.74\ngini = 0.5\nsamples = 78\nvalue = [67, 56]\nclass = pass", fillcolor="#fbeade"] ;
786 -> 788 ;
789 [label="gini = 0.0\nsamples = 2\nvalue = [3, 0]\nclass = pass", fillcolor="#e58139"] ;
788 -> 789 ;
790 [label="hours_studied <= 1.08\ngini = 0.5\nsamples = 76\nvalue = [64, 56]\nclass = pass", fillcolor="#fcefe6"] ;
788 -> 790 ;
791 [label="hours_studied <= 0.83\ngini = 0.35\nsamples = 6\nvalue = [2, 7]\nclass = fail", fillcolor="#72b9ec"] ;
790 -> 791 ;
792 [label="gini = 0.0\nsamples = 2\nvalue = [0, 3]\nclass = fail", fillcolor="#399de5"] ;
791 -> 792 ;
793 [label="hours_studied <= 1.03\ngini = 0.44\nsamples = 4\nvalue = [2, 4]\nclass = fail", fillcolor="#9ccef2"] ;
791 -> 793 ;
794 [label="hours_studied <= 0.9\ngini = 0.44\nsamples = 3\nvalue = [2, 1]\nclass = pass", fillcolor="#f2c09c"] ;
793 -> 794 ;
795 [label="gini = 0.0\nsamples = 1\nvalue = [1, 0]\nclass = pass", fillcolor="#e58139"] ;
794 -> 795 ;
796 [label="hours_studied <= 0.99\ngini = 0.5\nsamples = 2\nvalue = [1, 1]\nclass = pass", fillcolor="#ffffff"] ;
794 -> 796 ;
797 [label="gini = 0.0\nsamples = 1\nvalue = [0, 1]\nclass = fail", fillcolor="#399de5"] ;
796 -> 797 ;
798 [label="gini = 0.0\nsamples = 1\nvalue = [1, 0]\nclass = pass", fillcolor="#e58139"] ;
796 -> 798 ;
799 [label="gini = 0.0\nsamples = 1\nvalue = [0, 3]\nclass = fail", fillcolor="#399de5"] ;
793 -> 799 ;
800 [label="hours_studied <= 1.16\ngini = 0.49\nsamples = 70\nvalue = [62, 49]\nclass = pass", fillcolor="#fae5d5"] ;
790 -> 800 ;
801 [label="hours_studied <= 1.16\ngini = 0.49\nsamples = 64\nvalue = [58, 41]\nclass = pass", fillcolor="#f7dac5"] ;
800 -> 801 ;
802 [label="hours_studied <= 1.16\ngini = 0.49\nsamples = 63\nvalue = [53, 41]\nclass = pass", fillcolor="#f9e2d2"] ;
801 -> 802 ;
803 [label="hours_studied <= 1.12\ngini = 0.49\nsamples = 61\nvalue = [53, 39]\nclass = pass", fillcolor="#f8decb"] ;
802 -> 803 ;
804 [label="gini = 0.0\nsamples = 1\nvalue = [2, 0]\nclass = pass", fillcolor="#e58139"] ;
803 -> 804 ;
805 [label="hours_studied <= 1.13\ngini = 0.49\nsamples = 60\nvalue = [51, 39]\nclass = pass", fillcolor="#f9e1d0"] ;
803 -> 805 ;
806 [label="hours_studied <= 1.12\ngini = 0.49\nsamples = 58\nvalue = [49, 39]\nclass = pass", fillcolor="#fae5d7"] ;
805 -> 806 ;
807 [label="gini = 0.0\nsamples = 1\nvalue = [0, 1]\nclass = fail", fillcolor="#399de5"] ;
806 -> 807 ;
808 [label="hours_studied <= 1.13\ngini = 0.49\nsamples = 57\nvalue = [49, 38]\nclass = pass", fillcolor="#f9e3d3"] ;
806 -> 808 ;
809 [label="gini = 0.49\nsamples = 56\nvalue = [49, 37]\nclass = pass", fillcolor="#f9e0cf"] ;
808 -> 809 ;
810 [label="gini = 0.0\nsamples = 1\nvalue = [0, 1]\nclass = fail", fillcolor="#399de5"] ;
808 -> 810 ;
811 [label="gini = 0.0\nsamples = 2\nvalue = [2, 0]\nclass = pass", fillcolor="#e58139"] ;
805 -> 811 ;
812 [label="gini = 0.0\nsamples = 2\nvalue = [0, 2]\nclass = fail", fillcolor="#399de5"] ;
802 -> 812 ;
813 [label="gini = 0.0\nsamples = 1\nvalue = [5, 0]\nclass = pass", fillcolor="#e58139"] ;
801 -> 813 ;
814 [label="hours_studied <= 1.17\ngini = 0.44\nsamples = 6\nvalue = [4, 8]\nclass = fail", fillcolor="#9ccef2"] ;
800 -> 814 ;
815 [label="gini = 0.0\nsamples = 1\nvalue = [0, 5]\nclass = fail", fillcolor="#399de5"] ;
814 -> 815 ;
816 [label="hours_studied <= 1.18\ngini = 0.49\nsamples = 5\nvalue = [4, 3]\nclass = pass", fillcolor="#f8e0ce"] ;
814 -> 816 ;
817 [label="gini = 0.0\nsamples = 2\nvalue = [3, 0]\nclass = pass", fillcolor="#e58139"] ;
816 -> 817 ;
818 [label="hours_studied <= 1.22\ngini = 0.38\nsamples = 3\nvalue = [1, 3]\nclass = fail", fillcolor="#7bbeee"] ;
816 -> 818 ;
819 [label="hours_studied <= 1.2\ngini = 0.5\nsamples = 2\nvalue = [1, 1]\nclass = pass", fillcolor="#ffffff"] ;
818 -> 819 ;
820 [label="gini = 0.0\nsamples = 1\nvalue = [0, 1]\nclass = fail", fillcolor="#399de5"] ;
819 -> 820 ;
821 [label="gini = 0.0\nsamples = 1\nvalue = [1, 0]\nclass = pass", fillcolor="#e58139"] ;
819 -> 821 ;
822 [label="gini = 0.0\nsamples = 1\nvalue = [0, 2]\nclass = fail", fillcolor="#399de5"] ;
818 -> 822 ;
823 [label="gini = 0.0\nsamples = 8\nvalue = [11, 0]\nclass = pass", fillcolor="#e58139"] ;
749 -> 823 ;
824 [label="age <= 3.09\ngini = 0.49\nsamples = 139\nvalue = [94, 130]\nclass = fail", fillcolor="#c8e4f8"] ;
748 -> 824 ;
825 [label="hours_studied <= 1.2\ngini = 0.5\nsamples = 93\nvalue = [66, 74]\nclass = fail", fillcolor="#eaf4fc"] ;
824 -> 825 ;
826 [label="age <= 3.04\ngini = 0.5\nsamples = 88\nvalue = [65, 64]\nclass = pass", fillcolor="#fffdfc"] ;
825 -> 826 ;
827 [label="hours_studied <= 0.89\ngini = 0.49\nsamples = 76\nvalue = [49, 64]\nclass = fail", fillcolor="#d1e8f9"] ;
826 -> 827 ;
828 [label="gini = 0.0\nsamples = 7\nvalue = [0, 10]\nclass = fail", fillcolor="#399de5"] ;
827 -> 828 ;
829 [label="hours_studied <= 0.93\ngini = 0.5\nsamples = 69\nvalue = [49, 54]\nclass = fail", fillcolor="#edf6fd"] ;
827 -> 829 ;
830 [label="hours_studied <= 0.9\ngini = 0.32\nsamples = 6\nvalue = [8, 2]\nclass = pass", fillcolor="#eca06a"] ;
829 -> 830 ;
831 [label="hours_studied <= 0.9\ngini = 0.44\nsamples = 2\nvalue = [1, 2]\nclass = fail", fillcolor="#9ccef2"] ;
830 -> 831 ;
832 [label="gini = 0.0\nsamples = 1\nvalue = [1, 0]\nclass = pass", fillcolor="#e58139"] ;
831 -> 832 ;
833 [label="gini = 0.0\nsamples = 1\nvalue = [0, 2]\nclass = fail", fillcolor="#399de5"] ;
831 -> 833 ;
834 [label="gini = 0.0\nsamples = 4\nvalue = [7, 0]\nclass = pass", fillcolor="#e58139"] ;
830 -> 834 ;
835 [label="hours_studied <= 1.17\ngini = 0.49\nsamples = 63\nvalue = [41, 52]\nclass = fail", fillcolor="#d5eafa"] ;
829 -> 835 ;
836 [label="hours_studied <= 0.99\ngini = 0.31\nsamples = 13\nvalue = [4, 17]\nclass = fail", fillcolor="#68b4eb"] ;
835 -> 836 ;
837 [label="hours_studied <= 0.94\ngini = 0.49\nsamples = 4\nvalue = [4, 5]\nclass = fail", fillcolor="#d7ebfa"] ;
836 -> 837 ;
838 [label="gini = 0.0\nsamples = 2\nvalue = [0, 5]\nclass = fail", fillcolor="#399de5"] ;
837 -> 838 ;
839 [label="gini = 0.0\nsamples = 2\nvalue = [4, 0]\nclass = pass", fillcolor="#e58139"] ;
837 -> 839 ;
840 [label="gini = 0.0\nsamples = 9\nvalue = [0, 12]\nclass = fail", fillcolor="#399de5"] ;
836 -> 840 ;
841 [label="hours_studied <= 1.19\ngini = 0.5\nsamples = 50\nvalue = [37, 35]\nclass = pass", fillcolor="#fef8f4"] ;
835 -> 841 ;
842 [label="gini = 0.0\nsamples = 3\nvalue = [4, 0]\nclass = pass", fillcolor="#e58139"] ;
841 -> 842 ;
843 [label="hours_studied <= 1.19\ngini = 0.5\nsamples = 47\nvalue = [33, 35]\nclass = fail", fillcolor="#f4f9fe"] ;
841 -> 843 ;
844 [label="gini = 0.0\nsamples = 1\nvalue = [0, 1]\nclass = fail", fillcolor="#399de5"] ;
843 -> 844 ;
845 [label="gini = 0.5\nsamples = 46\nvalue = [33, 34]\nclass = fail", fillcolor="#f9fcfe"] ;
843 -> 845 ;
846 [label="gini = 0.0\nsamples = 12\nvalue = [16, 0]\nclass = pass", fillcolor="#e58139"] ;
826 -> 846 ;
847 [label="hours_studied <= 1.22\ngini = 0.17\nsamples = 5\nvalue = [1, 10]\nclass = fail", fillcolor="#4da7e8"] ;
825 -> 847 ;
848 [label="gini = 0.0\nsamples = 3\nvalue = [0, 8]\nclass = fail", fillcolor="#399de5"] ;
847 -> 848 ;
849 [label="hours_studied <= 1.22\ngini = 0.44\nsamples = 2\nvalue = [1, 2]\nclass = fail", fillcolor="#9ccef2"] ;
847 -> 849 ;
850 [label="gini = 0.0\nsamples = 1\nvalue = [1, 0]\nclass = pass", fillcolor="#e58139"] ;
849 -> 850 ;
851 [label="gini = 0.0\nsamples = 1\nvalue = [0, 2]\nclass = fail", fillcolor="#399de5"] ;
849 -> 851 ;
852 [label="hours_studied <= 1.2\ngini = 0.44\nsamples = 46\nvalue = [28, 56]\nclass = fail", fillcolor="#9ccef2"] ;
824 -> 852 ;
853 [label="hours_studied <= 0.76\ngini = 0.38\nsamples = 41\nvalue = [19, 56]\nclass = fail", fillcolor="#7cbeee"] ;
852 -> 853 ;
854 [label="age <= 3.11\ngini = 0.49\nsamples = 6\nvalue = [5, 4]\nclass = pass", fillcolor="#fae6d7"] ;
853 -> 854 ;
855 [label="gini = 0.0\nsamples = 2\nvalue = [0, 4]\nclass = fail", fillcolor="#399de5"] ;
854 -> 855 ;
856 [label="gini = 0.0\nsamples = 4\nvalue = [5, 0]\nclass = pass", fillcolor="#e58139"] ;
854 -> 856 ;
857 [label="hours_studied <= 0.94\ngini = 0.33\nsamples = 35\nvalue = [14, 52]\nclass = fail", fillcolor="#6eb7ec"] ;
853 -> 857 ;
858 [label="hours_studied <= 0.81\ngini = 0.08\nsamples = 13\nvalue = [1, 24]\nclass = fail", fillcolor="#41a1e6"] ;
857 -> 858 ;
859 [label="age <= 3.11\ngini = 0.2\nsamples = 5\nvalue = [1, 8]\nclass = fail", fillcolor="#52a9e8"] ;
858 -> 859 ;
860 [label="hours_studied <= 0.8\ngini = 0.32\nsamples = 3\nvalue = [1, 4]\nclass = fail", fillcolor="#6ab6ec"] ;
859 -> 860 ;
861 [label="gini = 0.0\nsamples = 2\nvalue = [0, 4]\nclass = fail", fillcolor="#399de5"] ;
860 -> 861 ;
862 [label="gini = 0.0\nsamples = 1\nvalue = [1, 0]\nclass = pass", fillcolor="#e58139"] ;
860 -> 862 ;
